， -0.014266 0.250007 -0.216624 0.110127 -0.021599 0.044944 0.094804 -0.119697 0.195288 0.059974 -0.350714 0.204527 -0.042610 -0.146057 0.008642 0.103676 0.231652 0.096764 -0.567859 0.267420 0.184284 -0.384037 0.112959 -0.098831 -0.104269 -0.160866 -0.283843 0.115192 -0.163817 0.009978 -0.069893 -0.167929 -0.069521 0.104248 -0.077074 0.038110 0.049591 -0.255283 0.358505 0.083618 0.123768 -0.014616 0.248841 0.087158 -0.055421 0.168331 0.103639 -0.244672 -0.287774 -0.067241 0.026889 0.000114 0.151894 0.128660 -0.059981 -0.090321 0.320990 0.076321 0.314351 -0.458241 -0.259405 -0.047242 0.210598 -0.013952 -0.054385 0.140386 0.041609 -0.161641 -0.194567 -0.053089 -0.148486 -0.297024 -0.128130 -0.032237 0.110797 0.166883 0.186912 0.214249 0.243719 -0.258767 0.335553 -0.206613 0.131867 0.321915 -0.249480 -0.005593 0.276138 0.072025 0.083090 -0.095045 0.016378 0.373628 -0.209900 0.136556 0.125711 -0.302609 0.294108 0.024144 -0.119014 -0.286444 -0.336872 -0.043123 -0.033364 0.104860 0.060947 -0.060842 0.041384 0.287658 -0.162784 -0.097928 -0.006914 -0.165889 0.291372 0.023108 0.158989 -0.178347 0.067252 0.011498 0.064870 0.030521 -0.371284 -0.062142 0.228741 -0.021119 0.236931 0.245409 0.047000 0.021570 -0.264158 -0.112767 -0.355539 -0.097474 0.293978 -0.076748 0.112079 0.159515 0.046466 -0.193897 0.040645 0.050879 -0.075027 -0.256234 0.070960 -0.186113 -0.237494 0.048127 -0.044402 -0.074852 0.062771 -0.087303 -0.094355 0.060951 -0.214871 -0.058275 -0.041230 -0.057219 0.097828 -0.115516 0.310441 -0.056465 -0.064239 -0.028958 0.285618 -0.153842 -0.346812 0.250569 0.041293 -0.037974 -0.114139 0.017220 0.053985 0.074851 0.040891 -0.119462 -0.358353 0.008273 -0.466249 0.107489 -0.256407 0.161457 -0.077575 -0.072340 -0.004761 0.135833 -0.251750 -0.044099 -0.247526 -0.065992 -0.244783 -0.085494 0.054640 0.338906 -0.027719 0.026014 0.299779 0.093841 -0.351247 0.025797 -0.099914 -0.111857 0.039656 0.048485 0.122460 -0.117289 0.075025 -0.166206 0.061738 -0.208032 0.083028 0.054812 -0.009655 -0.258698 0.106208 -0.144988 -0.108381 -0.078224 -0.186456 0.189791 0.024916 -0.338179 0.272724 -0.056495 0.040008 0.091197 0.059329 -0.167357 -0.044582 -0.001657 -0.051763 -0.120468 -0.032194 -0.058938 -0.286176 -0.098300 0.185303 0.106287 0.405418 0.146344 0.190461 -0.044531 -0.255111 -0.236626 -0.170443 0.157692 -0.007252 0.018205 0.007136 0.047933 -0.154003 -0.085499 0.161678 -0.107972 -0.107396 -0.077744 -0.082801 -0.181832 -0.119055 -0.111453 0.060282 -0.041866 -0.395261 -0.001323 -0.297687 -0.025444 0.024892 -0.124509 -0.171009 -0.029449 -0.126003 0.032634 -0.121974 0.361802 0.161539 -0.205575 0.298538 0.235370 0.088715 0.172975 0.196007 -0.219340 0.181357 0.356722 0.161573 -0.023725 0.124824 -0.071373 -0.036328 0.016068 -0.043905 0.270314 -0.232363 -0.016297 -0.175351 0.010361 -0.202841 0.188121 -0.132969 0.021643 -0.049774 -0.269513 
的 -0.069504 0.237128 -0.176085 0.223195 0.060370 -0.123095 0.176233 -0.192060 0.278895 0.053764 -0.001347 0.111870 -0.225342 0.027322 0.075640 0.062978 0.317773 0.111604 -0.590200 0.044413 -0.025402 -0.390264 0.012874 -0.178309 0.006977 0.092942 -0.275334 0.014805 -0.089756 -0.169350 -0.020127 -0.054639 0.061022 0.091848 -0.012092 0.174796 0.225856 -0.235902 0.269253 0.300042 0.094992 -0.039372 0.123052 -0.221866 0.006825 0.048234 -0.009725 -0.353914 -0.303079 -0.219342 -0.121140 -0.060291 0.057079 0.167503 -0.166768 -0.176932 0.214713 0.134157 0.172591 -0.303686 -0.109604 0.007374 -0.168429 -0.138991 0.060109 0.107448 0.114039 -0.220352 -0.203943 -0.204737 -0.163662 -0.146163 -0.131786 0.136127 -0.218054 0.020539 0.184588 0.132455 0.262091 -0.031710 0.412884 -0.383290 0.256726 0.125006 -0.315837 0.062460 0.005019 0.061940 0.101377 0.082906 0.153334 0.110755 -0.045506 0.038308 -0.059854 -0.268856 0.312104 -0.014758 0.094145 -0.255888 -0.408018 0.001797 0.194240 -0.025441 -0.044876 -0.026523 0.022526 0.098425 -0.158861 -0.103791 0.059233 -0.086238 0.175776 -0.137342 0.226313 -0.273180 0.144610 0.083270 -0.050847 -0.057474 -0.075879 0.135883 0.310584 0.248727 -0.092314 0.355126 0.129260 -0.051817 0.071102 -0.214774 -0.184199 -0.013312 -0.032480 0.055585 -0.070330 0.096807 -0.069963 -0.163397 -0.072342 0.035453 -0.201233 -0.139382 -0.062836 -0.201608 -0.084251 0.026529 -0.088828 -0.020694 0.165057 -0.357018 0.100772 0.157722 -0.108359 -0.033499 -0.173189 -0.083879 -0.033305 0.067013 0.116596 -0.069383 0.202821 0.114190 0.150841 -0.021775 -0.327896 0.020852 -0.028091 -0.072254 -0.065356 0.037290 0.149736 -0.000619 0.241411 -0.128533 -0.140036 -0.301324 -0.353922 -0.068061 -0.161781 0.149133 -0.097153 -0.240834 0.011594 0.143094 -0.120103 0.172394 -0.240981 0.081244 -0.064242 0.171787 -0.184569 0.337282 0.058911 -0.121840 0.000391 0.231069 -0.276005 0.214024 0.009317 0.054783 0.117381 0.176255 0.110947 -0.291920 0.034740 -0.274866 -0.090779 -0.283055 0.141019 0.072949 -0.089484 -0.184441 0.148106 0.096163 -0.006145 -0.031492 0.040418 0.005679 0.065431 -0.340577 0.289976 0.065534 -0.114275 -0.065987 -0.063108 -0.223885 0.330648 0.173182 -0.037511 0.079956 0.189036 -0.139099 -0.323130 0.074230 0.102934 -0.176612 0.233109 0.351509 0.253437 0.015051 -0.071453 -0.557461 -0.005216 0.087804 0.118432 0.225568 0.107038 0.070031 0.011998 -0.273584 0.269472 0.280739 -0.106684 -0.039845 -0.137623 -0.217202 -0.119705 -0.187282 0.174233 -0.082784 -0.348879 -0.016920 -0.152922 -0.048339 -0.136344 0.095058 -0.222638 0.115450 -0.341427 0.111117 -0.107691 0.148337 -0.068693 -0.066224 0.040754 0.359931 -0.072349 0.185841 0.154039 -0.174301 -0.051882 -0.024786 -0.106216 -0.052278 -0.107934 0.125297 0.088118 -0.074693 -0.150919 0.066665 -0.278124 -0.050874 -0.223827 0.156830 -0.193830 0.147332 0.061130 -0.176262 -0.110758 0.049733 
。 -0.002490 0.211368 -0.282622 -0.096107 -0.086299 -0.062662 0.226031 -0.110986 0.244422 0.118778 -0.181956 0.290335 -0.122819 -0.033963 -0.102829 0.106779 0.320107 0.068196 -0.620971 0.245301 0.046739 -0.211389 -0.029690 -0.119530 -0.190206 0.162670 -0.239418 0.179406 -0.088313 0.076855 -0.098315 -0.144616 -0.173504 -0.102735 -0.113067 0.011100 0.019656 -0.341330 0.455766 0.012963 0.016721 -0.079764 0.122807 -0.107418 -0.014328 -0.013401 0.205801 -0.447047 -0.315399 -0.248745 -0.037872 -0.008921 0.239758 -0.003397 0.015104 -0.088100 0.171071 0.025138 0.209859 -0.331097 -0.097456 -0.146352 0.042502 -0.104299 -0.009060 0.078151 0.079060 -0.119875 -0.123632 0.089253 0.003255 -0.280966 -0.121848 0.068165 0.051599 -0.049266 0.253208 0.159939 0.256853 -0.094729 0.278870 -0.187040 0.182989 0.207373 -0.239746 -0.057714 0.154432 -0.124054 0.036591 -0.043175 -0.010578 0.250743 -0.049218 0.060866 0.196676 -0.343234 0.182794 -0.129470 -0.133429 -0.266943 -0.308847 -0.035417 0.093869 0.247279 -0.027648 -0.125933 -0.004580 0.143095 -0.075021 -0.014531 0.136624 0.037624 0.227524 -0.181578 0.018432 -0.226239 0.118597 0.125092 -0.176174 -0.039158 -0.468276 -0.180231 0.064491 0.066720 0.220918 0.107401 0.113243 0.198844 -0.121237 -0.239810 -0.430661 -0.159810 0.228615 -0.000935 0.017741 0.155257 0.083560 -0.365038 -0.025446 -0.044607 -0.123723 -0.121091 0.230905 -0.200343 -0.365993 -0.013806 -0.168074 -0.280435 0.163003 -0.108049 -0.082503 0.045247 -0.120142 -0.017790 -0.252273 -0.111553 0.069284 -0.366379 0.388478 0.097857 -0.058058 0.064786 0.194084 -0.222542 -0.365979 0.133864 -0.062187 -0.090517 -0.204425 -0.001600 0.064005 -0.066268 0.089847 -0.180337 -0.272609 -0.160498 -0.513192 0.246704 -0.108116 0.206214 -0.312518 -0.086683 0.030845 0.108795 -0.106713 -0.028575 -0.084692 -0.162487 -0.102864 0.068264 0.074711 0.479809 0.128268 -0.076500 0.146045 0.212388 -0.196087 -0.008072 -0.115821 -0.091674 0.073061 0.121667 0.091693 -0.120186 0.038391 -0.115598 -0.049374 -0.063567 0.094352 -0.058967 0.060477 -0.245364 0.129670 -0.046538 -0.231096 -0.001890 -0.011180 0.306185 0.143979 -0.296429 0.288341 0.079929 0.011425 0.163703 0.135556 -0.121128 0.005890 0.035829 0.050042 -0.201143 0.080501 0.158181 -0.049719 -0.052553 0.055642 0.177462 0.184607 0.265450 0.169706 -0.292152 -0.119286 -0.346281 -0.093599 0.256421 -0.115966 0.096989 -0.096147 0.076941 -0.173511 0.014694 0.158364 -0.201109 -0.028099 0.058532 0.123400 -0.119869 -0.208630 -0.213804 0.029838 0.110791 -0.320671 -0.017945 -0.370661 -0.092956 0.204296 -0.003454 -0.166165 -0.178105 -0.236903 0.063321 -0.004026 0.084328 -0.058772 -0.266565 0.102900 0.341851 0.043903 0.213522 0.004649 -0.154656 0.185914 0.146904 0.182719 0.117670 0.128959 0.014890 -0.027860 -0.155295 -0.124789 0.091464 -0.206737 0.062481 -0.289762 0.073787 -0.104870 0.092171 -0.151217 0.016367 0.002536 0.017645 
、 0.062736 -0.072389 -0.186950 0.048886 0.167588 -0.126054 0.280596 -0.366933 0.014436 -0.002018 -0.103351 0.150115 -0.266021 0.001612 0.173481 -0.038149 -0.109929 -0.211231 -0.453402 -0.044713 0.069945 -0.206732 -0.136278 -0.107466 -0.029491 -0.060202 -0.202232 -0.174611 -0.122860 -0.013549 0.307767 -0.222519 -0.138151 0.322426 0.177075 0.182828 0.231105 -0.507644 -0.016006 0.116982 0.241679 0.050931 0.253647 -0.031441 -0.023990 -0.003574 -0.046671 -0.099439 -0.099019 0.132254 -0.056736 0.245182 0.217997 0.481427 -0.049380 -0.039644 0.295405 0.074655 0.096623 -0.365125 -0.200411 0.385937 0.157688 0.135734 -0.142575 0.183734 0.068807 0.100059 -0.159390 0.061184 0.074092 -0.167496 0.019269 0.132809 0.164079 0.080683 -0.041453 0.148599 -0.029902 -0.200158 0.477464 -0.202942 0.034585 0.123218 -0.188529 -0.161233 -0.170343 0.238615 0.208846 -0.174820 0.076998 0.423578 -0.065405 -0.188370 -0.001403 -0.195741 0.314126 -0.051385 -0.047256 -0.201082 -0.388909 0.082824 0.039279 0.135373 0.080062 -0.086308 -0.203419 0.031552 -0.194411 -0.239591 -0.245238 -0.136382 0.050326 0.012769 -0.007078 0.118899 0.252763 0.175612 -0.126796 0.070210 -0.186726 0.276184 0.227952 -0.037579 0.050805 -0.010831 -0.173940 0.439795 -0.206885 -0.080483 0.021916 0.008318 0.360274 -0.137560 0.158740 0.043070 -0.054402 -0.353838 0.164979 0.145340 -0.304156 -0.370398 -0.241889 0.020582 -0.214951 -0.138149 0.202398 -0.293513 -0.173256 -0.140186 -0.043584 -0.099369 0.053575 0.055958 -0.132916 0.285369 0.116130 0.106285 0.086979 0.074991 0.092269 -0.029339 0.251114 0.018338 -0.371394 0.028383 0.075777 0.111571 -0.303389 -0.127436 -0.085072 -0.024868 0.196929 0.202930 -0.090167 0.184906 -0.355721 -0.261340 -0.260935 0.049508 0.090414 -0.010700 -0.074988 0.304516 -0.220008 0.223675 -0.043785 0.221770 0.140005 -0.064947 0.189959 0.171429 0.273400 -0.055870 -0.170346 0.027755 -0.156713 0.094479 -0.077790 0.017585 -0.005586 -0.033451 0.103312 -0.310980 0.019362 -0.017659 -0.087428 0.055211 0.106989 -0.114921 0.207075 -0.457204 -0.127098 -0.256546 0.241037 0.050135 -0.068956 0.088103 -0.081552 -0.087522 0.218264 -0.048184 -0.309586 -0.073260 0.173077 0.031233 -0.010894 0.009218 -0.239595 -0.098751 -0.082682 0.007514 -0.378789 -0.091750 0.122511 0.195334 0.320717 0.386525 0.234119 -0.127502 0.130439 -0.275533 -0.067338 0.182509 0.022311 0.058021 0.286683 0.402119 0.025950 -0.209158 0.303664 -0.080049 -0.324588 -0.224607 0.059507 -0.342398 -0.158237 0.304948 -0.070891 -0.047087 -0.346212 -0.144873 0.108631 -0.176814 -0.022103 0.059223 -0.062107 0.140638 0.040934 0.041263 -0.055563 0.182120 -0.113695 -0.263633 0.212452 0.423000 0.268133 0.144370 0.322056 -0.124186 -0.039411 0.226448 -0.049364 0.147266 -0.034031 -0.125165 0.081114 0.017181 -0.089778 0.179964 -0.137126 -0.239371 0.084204 -0.016905 -0.031194 0.099356 -0.022873 0.125567 -0.369841 -0.341432 
： -0.089291 -0.072374 -0.424654 -0.261097 0.235719 -0.032848 0.215322 0.068907 -0.136711 -0.056496 -0.085397 0.414134 0.106336 -0.051427 0.199968 -0.094719 0.418762 0.081450 -0.318971 -0.081501 -0.067259 0.032411 -0.199485 0.097624 -0.164327 -0.406577 -0.128788 0.085164 -0.036894 0.130284 0.334131 -0.251705 -0.274953 0.133382 0.471858 -0.144101 0.321861 -0.266434 0.052078 0.081849 0.246179 0.322915 0.013805 0.304254 0.220609 0.020797 0.287783 -0.252323 -0.210171 -0.048083 -0.043214 0.210232 0.231264 0.212665 -0.038548 0.035302 0.388561 0.187336 -0.206593 -0.083374 -0.493595 0.162502 0.140587 0.136193 -0.268846 0.127824 0.182802 0.157371 -0.472636 -0.192268 -0.187830 -0.093631 -0.171036 -0.139576 0.308781 -0.065948 -0.015461 0.201874 -0.253355 0.004292 0.028411 -0.403273 0.096530 0.106760 -0.250477 0.333665 0.356761 -0.280669 0.400484 -0.069172 0.299279 0.116035 -0.220838 0.037201 -0.026664 0.015549 0.290185 0.199340 -0.243200 -0.266879 -0.157672 -0.212059 0.037332 0.327602 -0.097425 -0.419496 -0.092608 0.228664 0.072826 -0.158737 -0.142557 -0.038448 -0.128662 -0.106775 0.293409 -0.123993 0.132881 0.139700 0.284362 -0.146854 -0.316374 0.056691 0.309856 -0.089129 0.179097 0.119422 -0.003087 0.094565 -0.291445 -0.103493 -0.106511 -0.104478 0.303300 -0.372345 0.273554 0.096884 0.183202 0.013715 0.250653 0.099673 -0.250493 -0.269801 -0.168384 0.272321 -0.058899 0.214329 -0.192475 -0.310493 0.020055 -0.210839 -0.065792 -0.053708 0.372567 0.034602 -0.164858 -0.024057 -0.080395 -0.148912 0.180680 -0.244703 -0.395180 0.215292 0.279153 0.167421 -0.578951 0.183224 -0.052880 0.285530 -0.352486 -0.099156 0.258433 0.013257 0.061240 0.085333 -0.376890 0.210435 -0.406941 -0.089639 -0.061381 -0.113704 0.217557 -0.442813 -0.126914 0.013990 0.027290 0.081423 0.180743 -0.454947 -0.111897 -0.093089 0.149080 0.111695 -0.080433 -0.082399 0.073066 0.076934 -0.075606 -0.233427 0.035891 -0.223884 0.056646 0.016951 -0.043632 0.030254 -0.313443 -0.004224 0.177000 -0.119770 0.070094 -0.125038 -0.201024 -0.135362 0.021152 -0.225836 -0.086502 -0.274792 -0.084575 0.048375 0.119709 -0.011011 0.288214 -0.204737 -0.088905 -0.194900 0.303052 0.260732 -0.149646 0.213371 -0.197861 -0.014254 0.052894 0.291804 -0.138295 -0.221764 -0.118068 0.203844 0.202748 0.306216 0.329095 -0.026178 -0.030727 -0.290420 -0.277624 0.009641 0.173682 0.267945 -0.056336 0.065289 -0.053997 0.019720 0.632194 0.226053 -0.317365 0.195125 -0.347276 0.025256 -0.146527 -0.254358 0.208737 0.252095 -0.178833 -0.204102 0.208195 0.488957 -0.085378 -0.122550 -0.172811 0.137452 0.253629 0.302641 -0.142538 0.244360 -0.052792 -0.496653 0.223266 0.234658 0.321171 0.014247 -0.299435 0.183190 0.265797 0.040152 0.136816 0.122520 0.283362 -0.322116 0.106575 0.333429 0.134408 -0.079663 -0.193562 -0.152018 0.340113 -0.013399 -0.627158 -0.000925 0.012982 0.110295 0.128900 0.067106 
（ -0.243957 -0.130874 -0.474131 -0.066184 0.095987 -0.038225 0.326780 0.018616 -0.090600 0.028679 -0.196669 0.269298 0.000864 -0.185638 -0.086297 0.018517 0.318916 0.001585 -0.331987 -0.046433 -0.118459 -0.059290 -0.035471 -0.117769 -0.215217 -0.143304 -0.289501 0.129834 0.271569 0.028478 0.392239 -0.137492 -0.285039 -0.031918 0.332620 -0.026264 -0.038734 -0.198271 -0.063532 0.103837 0.221097 0.075014 -0.003061 0.015396 -0.201540 0.066315 0.011745 -0.174033 -0.009502 0.075323 0.062274 0.191077 0.260684 0.233125 0.042193 0.163278 0.357276 -0.047538 0.038017 -0.538790 -0.237001 0.072246 0.168293 0.066043 -0.003554 0.211882 0.154061 -0.036580 -0.149528 0.081185 0.049096 -0.254013 -0.382900 -0.146259 -0.028271 0.059875 -0.119554 0.334399 -0.131930 -0.353856 0.046055 -0.459266 0.164408 0.190858 -0.225599 -0.003994 0.133799 -0.145617 0.447222 -0.097351 -0.045244 0.113984 -0.007046 -0.042051 -0.084873 0.094229 0.152462 0.048797 -0.200382 -0.295141 -0.378019 -0.395373 0.341658 0.096546 -0.122679 -0.188596 -0.076261 0.016915 0.066534 0.092653 0.080345 -0.269935 0.073639 -0.223529 -0.001337 -0.186550 0.228077 0.252899 0.167135 -0.096579 -0.364970 -0.101564 0.167848 0.096923 0.108061 0.121480 0.154506 0.059279 -0.135945 -0.232461 -0.035796 -0.336503 0.037463 0.024546 0.101884 0.129310 0.081247 -0.443440 0.161268 0.079916 -0.279648 -0.434579 -0.249837 0.042828 -0.111875 0.220537 -0.117218 -0.481579 0.090957 -0.263633 -0.226109 -0.044531 0.208167 -0.032065 -0.148917 -0.124250 -0.314544 -0.100820 -0.016466 0.114563 -0.365363 0.229061 0.174070 0.077800 -0.444553 -0.002714 0.131475 0.105880 -0.330975 -0.180069 0.289320 -0.051735 0.075656 -0.005024 -0.255564 0.093459 -0.299080 -0.131592 -0.062319 -0.064514 -0.062466 -0.448283 -0.086070 0.154267 -0.042983 0.366441 -0.019689 -0.262041 0.109435 0.031629 -0.054511 0.355248 -0.159377 -0.120693 -0.228602 0.038784 -0.201671 -0.186667 -0.062397 0.053600 -0.226180 0.007554 0.107417 -0.330561 -0.241075 -0.072686 0.115999 -0.056092 0.012554 -0.272798 -0.060692 -0.113772 0.019138 -0.146995 -0.163245 -0.254984 0.121064 -0.003854 0.101978 -0.030077 0.238036 -0.336909 -0.146009 -0.203367 0.126781 -0.026289 -0.178092 0.084780 -0.256620 0.016906 0.030502 0.324297 -0.252203 0.084388 0.177695 0.044996 0.054915 0.352461 0.152332 0.018655 0.207626 -0.287786 -0.160651 -0.028225 0.111836 0.029264 0.321112 0.129152 0.061029 0.044141 0.625229 0.063314 -0.260674 0.138347 -0.046102 -0.132261 -0.034280 -0.006383 -0.052733 -0.025351 -0.549765 0.329739 0.114676 0.163887 -0.211559 -0.089648 -0.289832 0.046722 -0.106775 0.164631 0.153033 0.109512 0.097141 -0.247995 0.131062 0.299223 0.379151 -0.220956 -0.207817 0.086314 0.188765 -0.004821 0.161525 0.197597 0.061797 0.048533 0.155116 0.013480 -0.180522 0.078971 -0.144733 -0.048538 0.236829 -0.039026 -0.210388 0.373606 0.088528 0.296124 -0.059024 0.231581 
年 -0.011583 0.043792 -0.290093 -0.127444 0.052956 -0.185320 0.036039 -0.129667 0.386339 -0.000405 0.023783 0.239767 -0.003608 -0.185604 0.096172 0.403684 0.305833 0.123350 -0.546646 -0.168772 0.078205 -0.103563 -0.282771 0.078534 -0.247448 -0.398964 -0.303365 0.254515 0.437789 0.057036 0.210657 -0.181146 -0.277879 -0.040685 -0.199355 0.064434 -0.165614 -0.051832 0.139898 0.251230 0.168410 -0.188764 0.060096 0.108257 -0.209085 0.247198 0.092944 -0.058232 -0.125699 -0.177778 0.179937 0.206802 0.050194 0.158524 -0.195429 -0.097667 0.053467 -0.227196 -0.157495 -0.350166 -0.498363 -0.093692 -0.034422 0.536277 -0.024476 0.012004 -0.176968 -0.011894 0.130859 -0.322608 -0.192905 -0.213703 -0.611026 -0.051427 -0.128451 -0.353841 -0.045476 0.220482 0.048195 -0.064642 -0.189925 -0.465727 0.095661 -0.049118 -0.230836 0.354193 -0.173046 -0.203211 0.047389 -0.276413 -0.073231 0.030006 -0.265187 -0.295502 -0.339762 -0.246303 0.278128 0.090922 -0.155992 -0.063948 -0.182852 -0.114308 0.164136 0.189580 0.033459 -0.194388 -0.109293 0.000947 -0.010452 -0.021452 -0.094335 -0.267913 0.249086 0.001179 0.031645 -0.470015 0.236078 0.109618 0.299926 -0.059591 -0.095814 0.071524 -0.199249 0.093548 0.256198 0.454794 -0.178885 0.245683 -0.379348 -0.256633 0.055521 -0.137797 0.539190 0.331410 -0.179186 0.134155 -0.270320 -0.151867 -0.080786 0.202253 -0.065996 -0.247122 0.129822 0.006788 -0.044302 0.234893 0.222972 0.000493 -0.174687 -0.349456 0.128221 -0.221777 0.052619 -0.179804 -0.221226 -0.047862 -0.241827 -0.160860 0.290241 -0.098487 -0.252391 0.201574 0.209926 0.267550 -0.013609 0.157309 -0.059024 -0.163960 -0.076991 -0.052931 0.196456 0.143550 0.291196 0.099798 -0.291816 0.158453 -0.418861 -0.021093 -0.197474 0.032498 -0.522045 -0.421738 -0.242645 -0.216029 -0.065295 0.135031 0.111240 -0.435658 -0.036903 0.154086 -0.062663 0.269324 -0.183049 -0.015538 0.103845 0.075878 -0.216610 -0.117995 -0.416374 0.053137 -0.048589 0.044670 0.071513 -0.081250 -0.222022 -0.015740 -0.130873 0.271860 0.054800 -0.048084 -0.363316 -0.194707 0.189327 -0.288840 -0.119476 -0.447777 0.198495 -0.217788 0.187906 -0.137676 0.461146 -0.187446 -0.091650 -0.172317 -0.090939 -0.088923 -0.275386 -0.333916 -0.328843 -0.313339 -0.108014 0.058150 -0.114095 -0.015462 0.281733 0.089052 -0.157783 0.252063 0.010126 -0.107516 -0.107057 -0.667589 0.076117 0.201618 0.017490 -0.034825 0.143660 -0.202225 -0.059349 -0.071918 0.032656 -0.288078 -0.073300 0.035105 0.088564 0.245767 0.106983 -0.157351 0.122118 -0.004680 -0.419720 0.099271 -0.048103 -0.165373 -0.154096 -0.146855 -0.085268 -0.257984 0.121530 0.176835 0.005544 0.189164 0.249751 -0.098884 -0.018343 0.132002 0.033213 0.206998 -0.169479 -0.036886 0.266458 0.474690 -0.036896 -0.030629 0.031526 -0.160608 -0.191876 0.060797 -0.047735 0.219535 -0.199965 -0.115103 -0.054505 -0.160053 -0.421485 0.170894 -0.201751 0.549355 -0.135809 0.277150 
在 -0.283763 -0.089489 -0.230432 0.120085 0.289470 0.352764 0.094187 -0.139041 -0.049593 0.018487 -0.199383 0.326129 -0.023053 0.134527 0.063322 0.172208 0.541794 0.111151 -0.320012 0.302873 -0.016641 -0.406432 0.175677 -0.043796 -0.153475 0.048646 0.322383 -0.052868 0.077253 -0.041636 0.132674 -0.022923 -0.134643 0.085019 0.082306 -0.127885 -0.172172 -0.224564 0.075308 0.194075 0.264125 -0.120283 0.034379 0.003194 0.345924 0.326528 -0.100148 -0.218473 -0.023980 -0.249305 0.063197 0.042553 -0.034536 0.227691 -0.130704 -0.159710 0.167361 0.025455 0.121811 -0.408083 -0.356395 0.050049 -0.014962 0.118019 0.076505 0.176832 0.198261 -0.293816 -0.277052 0.034208 -0.078254 -0.103921 -0.225090 0.192046 0.029506 -0.072884 0.182960 0.343235 0.179475 -0.367732 0.119777 -0.314174 0.011961 0.295303 -0.135348 -0.163822 0.285521 0.016878 0.166068 -0.298017 0.079046 0.056393 -0.059177 -0.007209 -0.038582 -0.243318 0.291283 -0.194183 0.089161 -0.340684 -0.213983 0.136850 0.050249 -0.326115 -0.040674 -0.045748 0.018862 0.138872 -0.116563 -0.018345 -0.295466 0.093891 0.116051 -0.083857 0.064060 -0.039372 0.134788 0.080095 0.113523 0.025544 -0.144623 0.148761 0.199907 0.125143 -0.039319 0.062335 0.242760 -0.055716 -0.185144 -0.235535 -0.271912 -0.130101 0.301874 0.013928 -0.086456 0.139312 -0.005327 -0.258944 -0.168511 -0.130046 -0.211413 -0.131176 0.230045 0.110362 0.033313 0.003007 0.047275 -0.040406 -0.276340 -0.163399 0.124596 -0.013482 0.033345 -0.146443 -0.120220 -0.107410 0.012681 -0.123541 0.125109 -0.018245 0.061980 0.038074 0.282684 0.032625 -0.240000 0.203670 0.082424 0.062657 -0.194368 0.011595 0.218981 0.245050 0.227458 -0.186263 -0.542876 -0.048321 -0.435038 0.010929 -0.049574 0.025354 -0.179713 -0.149481 -0.130092 0.107193 -0.133326 0.088044 -0.175403 -0.151705 -0.005580 -0.009557 -0.073549 0.340986 -0.092958 0.139585 0.200465 0.172734 -0.291552 -0.104942 -0.084420 0.044035 -0.077491 0.035358 0.107123 -0.336725 -0.041688 0.072012 -0.022508 -0.139757 0.463486 0.073988 -0.116636 -0.085710 0.314847 -0.035004 -0.255331 -0.242324 0.006439 -0.104389 0.099961 -0.288489 -0.020163 -0.078888 -0.127413 -0.000910 0.004009 -0.156785 0.079973 0.007335 0.056255 -0.031933 -0.040883 -0.153983 -0.224988 -0.003959 -0.018345 -0.044216 0.058496 0.306198 0.045682 -0.373901 0.233653 -0.190967 -0.090492 0.146033 0.142834 0.043338 0.105826 -0.066066 -0.120228 -0.026068 0.143035 0.017965 -0.222450 0.109028 0.131019 -0.021970 0.080009 -0.109254 0.108222 0.074380 -0.173626 -0.115226 -0.044825 0.097730 -0.000102 -0.036027 -0.077710 0.046482 -0.402810 0.173857 -0.094811 0.283559 0.309366 -0.317778 0.136002 0.366209 0.071991 0.258071 0.014413 -0.088525 0.047343 0.132796 0.239267 0.089095 0.010338 -0.217895 -0.012603 -0.106795 -0.282430 0.359787 -0.186176 0.165945 0.011739 -0.239463 -0.131922 0.140715 -0.190438 -0.072121 -0.269012 0.180861 
“ -0.147645 -0.054584 -0.211783 0.064453 0.178063 0.251961 0.298222 0.082572 -0.172503 0.111898 -0.336834 0.223576 -0.071284 -0.254115 0.519142 0.189642 0.332376 0.049751 -0.489822 -0.088308 -0.073032 -0.101330 -0.116543 0.192045 0.033347 -0.136279 -0.062657 0.012788 0.118057 -0.214407 0.237075 -0.203614 -0.067877 -0.192474 0.265052 -0.011857 0.055746 -0.169482 0.320215 0.114871 0.149019 0.231131 0.040118 0.022549 0.007325 -0.103969 0.086593 -0.193568 -0.262202 0.031344 -0.391165 -0.063102 0.230281 0.120636 -0.054072 0.038286 0.394650 0.197503 0.074717 -0.079749 -0.428238 0.116310 0.320224 0.177271 -0.210580 0.240084 0.327518 0.044537 -0.170656 -0.044269 -0.035723 -0.083371 -0.388724 -0.223198 0.054205 -0.044037 0.038701 0.090973 0.005137 -0.067098 -0.170224 -0.319072 -0.177091 0.094154 -0.313746 0.056581 0.124552 -0.141634 0.183167 -0.361330 0.104311 -0.111212 -0.108196 0.028208 0.066056 -0.222216 0.026383 0.109957 -0.013050 -0.108051 -0.161044 0.063219 -0.019505 0.223805 -0.155656 -0.248311 0.119578 0.037287 -0.030616 -0.077602 0.033129 -0.013127 0.116712 -0.061112 0.354248 -0.181989 -0.073290 -0.008830 0.043586 -0.223615 -0.367261 0.123199 0.269860 -0.246671 -0.018349 0.239365 -0.044158 -0.095376 -0.021676 -0.210194 -0.400969 -0.101818 -0.055559 -0.122649 0.116311 0.190386 0.222190 -0.016298 0.104250 -0.055345 -0.061292 -0.318744 -0.081293 0.119732 -0.121328 0.235144 -0.014046 -0.217643 -0.058940 -0.114843 -0.031175 -0.083214 0.073048 -0.020899 -0.180922 -0.163031 -0.031845 0.101249 -0.168246 -0.284425 -0.307464 0.047904 0.302824 -0.051830 -0.180806 -0.013377 -0.110724 0.063830 -0.218340 -0.314310 0.295842 -0.002492 0.103743 -0.098408 -0.250791 0.209828 -0.342514 0.238162 -0.095733 -0.027500 -0.128736 -0.140782 -0.099232 0.036477 -0.367300 -0.009092 -0.126591 -0.236248 0.103240 -0.070594 0.193130 0.090629 -0.254890 -0.123664 -0.037171 -0.144758 -0.242369 -0.189657 -0.165568 -0.107831 0.045592 0.023156 -0.247337 -0.014212 -0.114510 -0.255869 0.296693 -0.079088 0.152171 -0.030127 -0.260538 -0.075949 0.057863 -0.021149 -0.310390 -0.218645 -0.032525 -0.067289 0.253810 -0.132607 0.197476 -0.007348 -0.137887 0.092943 -0.039276 -0.088048 -0.002549 0.196505 -0.144774 -0.069147 -0.161037 0.073319 -0.409009 0.115259 -0.094118 0.155593 0.306697 0.159236 0.071729 -0.087426 0.142314 -0.107888 -0.102796 0.038828 0.135576 0.066311 0.023439 -0.053361 -0.286666 0.096796 0.437863 0.166782 -0.018743 0.197540 -0.287983 -0.135477 -0.122832 0.001883 0.274591 -0.090145 -0.158824 -0.114562 0.090597 0.255607 -0.120149 -0.177410 -0.318718 0.223884 -0.262009 0.221633 0.076741 0.483976 0.028417 -0.344030 0.203633 0.456745 0.201193 0.150183 -0.120811 -0.072537 0.013744 0.259228 0.308144 0.078758 0.366935 0.011633 -0.034038 0.174882 -0.081952 -0.154672 -0.419652 -0.247968 0.031448 0.113403 -0.218615 0.393679 0.275755 0.159377 0.118736 0.068385 
了 0.071493 0.293622 -0.243510 -0.043823 -0.018632 0.105134 0.288323 -0.111958 0.203212 0.079771 -0.289693 0.021603 -0.303595 -0.015699 0.273726 -0.059171 0.209897 0.055133 -0.390505 0.121410 0.037868 -0.153545 0.382806 0.119695 -0.183550 0.114548 0.072260 0.044733 -0.080290 0.000251 0.058883 -0.107949 -0.203775 0.128679 0.136111 -0.109552 -0.071424 -0.137931 0.349356 0.086740 0.156293 -0.137100 0.183015 -0.233876 -0.031046 -0.050576 -0.088097 -0.275609 -0.267075 -0.090613 0.236231 -0.047489 0.106858 0.359041 -0.045685 -0.217779 -0.057211 0.035376 0.178513 -0.286550 -0.283071 -0.081385 0.091564 0.225705 0.256571 0.068080 -0.022832 -0.226827 -0.274329 0.195793 0.052478 -0.095617 -0.082829 0.098485 -0.018468 -0.154302 0.050973 0.131936 0.154303 -0.152938 0.222442 -0.112273 0.175223 0.004290 -0.391269 0.128253 -0.097574 0.121448 0.102347 -0.175142 0.151410 0.200451 -0.074583 0.034738 -0.134899 -0.494169 0.000319 -0.129514 0.032464 -0.504665 -0.253369 0.136682 0.229593 -0.037286 -0.221933 -0.160474 -0.013771 0.185408 -0.250327 0.076304 0.059757 0.190354 0.263558 0.166235 0.227055 -0.271498 0.273519 0.141861 0.105427 -0.075850 -0.396170 -0.037438 0.288951 0.011382 -0.034689 0.088994 0.278007 -0.054034 -0.379854 -0.105662 -0.361402 -0.051181 0.264735 0.020424 -0.052377 0.118087 0.088564 -0.109387 -0.251242 0.016122 -0.094001 -0.232866 0.005460 -0.174412 -0.194243 0.207226 -0.090427 -0.189406 -0.315855 -0.403027 0.128852 0.155945 0.016933 -0.335622 -0.087640 -0.081082 -0.089000 0.004102 -0.056730 0.029900 0.158280 -0.135420 0.353893 -0.017810 -0.392809 -0.059452 0.080464 0.116715 -0.234408 -0.169678 0.450966 0.070721 0.075417 -0.004222 -0.293947 -0.065112 -0.296601 0.200449 0.033703 0.099557 -0.178448 -0.129824 0.062656 0.205573 -0.059954 0.276755 -0.281202 -0.115915 -0.042701 0.044937 0.038095 0.263104 0.101780 -0.013423 0.043589 -0.074870 -0.307597 0.186688 -0.291039 -0.327931 0.317734 0.170440 0.042895 -0.170312 0.058237 -0.219840 0.249696 -0.055389 0.111951 0.099978 -0.329601 -0.182996 0.177195 -0.187217 -0.199855 -0.042152 0.125255 -0.146625 0.220806 0.090238 0.275482 -0.086583 -0.180351 0.231566 -0.013229 0.049190 0.010436 -0.334278 -0.125245 -0.042463 -0.081120 0.054481 -0.268583 -0.018088 -0.058638 0.113387 0.021270 0.254420 0.085096 -0.136861 -0.203920 -0.306991 0.028524 0.165488 0.020767 0.099670 -0.027054 0.121205 -0.112354 -0.003997 0.156293 0.091018 -0.055685 -0.090468 -0.052370 0.106416 0.197547 -0.254540 0.073615 -0.086032 -0.180634 -0.181538 -0.276396 0.247693 0.033796 -0.060578 -0.032560 0.006206 -0.028935 0.134931 -0.069384 0.052104 0.106518 -0.297193 -0.004222 0.374722 0.153858 0.045226 -0.044648 -0.284215 0.235173 0.200056 0.029031 -0.172644 0.000198 0.033409 0.012726 0.110521 0.001025 0.011157 -0.411893 -0.098785 -0.072841 -0.102871 -0.266161 0.295145 -0.107420 0.192445 -0.124009 0.133095 
一 -0.127176 0.034205 -0.194840 -0.033364 0.239103 0.000485 0.113307 -0.003459 0.092011 -0.078223 -0.312149 0.244779 0.008989 0.269178 0.176974 -0.040154 0.225586 -0.018075 -0.281940 0.010835 0.023585 -0.095480 -0.114338 0.041881 -0.040566 -0.069022 -0.108108 0.194548 0.021290 -0.093696 0.092085 -0.105287 -0.089430 0.120645 0.390237 0.061985 0.097229 -0.356934 0.145458 -0.014136 0.094188 0.050689 0.062206 0.018800 0.065454 0.171498 0.167761 -0.187566 -0.250073 0.188772 0.070287 0.028474 0.110120 0.061404 -0.279050 -0.046643 0.005536 -0.211607 0.054127 -0.049358 -0.224990 0.129985 0.079353 0.165299 -0.003426 -0.009753 0.157879 -0.065665 -0.300293 -0.049787 0.055423 -0.125194 -0.140547 -0.050551 -0.029904 -0.170290 -0.132084 0.125610 0.179295 0.042623 0.294327 -0.333847 0.285341 0.267747 -0.271809 0.120627 0.209879 -0.358548 0.464143 0.023479 0.124918 -0.060552 -0.277389 0.007944 0.129734 -0.398960 0.059926 0.004154 -0.155574 -0.118427 -0.034710 0.384682 0.067538 -0.172202 -0.318815 -0.358938 -0.030581 0.274535 -0.322240 -0.389240 0.090247 0.133617 0.310168 0.064264 0.295466 -0.066288 0.021044 0.117612 0.278245 -0.076369 -0.029743 -0.108591 0.143468 0.046958 0.262979 0.280491 0.218103 0.067579 -0.124446 -0.247952 -0.237436 -0.026715 0.110897 -0.109350 -0.125144 0.060080 -0.024540 -0.038838 -0.038193 -0.020402 -0.545061 -0.280694 0.079123 -0.210467 -0.163645 0.118643 -0.197709 -0.294542 -0.063890 -0.257005 0.028947 0.076768 0.031823 0.042653 -0.102319 -0.105126 -0.216742 0.024312 0.014779 -0.183834 0.025279 0.281809 -0.039648 -0.060636 -0.287555 0.122066 0.095149 -0.176216 -0.061499 0.213499 0.234863 0.157042 0.158150 -0.075276 -0.041186 0.146596 -0.173006 -0.093806 0.018349 0.295662 -0.366369 -0.592286 -0.097487 0.203254 -0.033568 0.065336 -0.088590 -0.432920 -0.108282 0.132541 0.055809 0.208296 0.150245 -0.058380 -0.223292 0.260488 -0.333228 0.057824 -0.219337 -0.248649 0.134791 0.225370 -0.183565 -0.290184 -0.283689 -0.103864 0.151283 -0.250721 0.173307 0.298576 -0.066532 0.182094 0.230934 -0.231371 -0.540208 -0.009365 0.141344 -0.311631 0.167897 -0.099845 0.359646 -0.200629 0.114208 0.095220 0.131587 -0.133577 0.038805 -0.101805 -0.026212 -0.028819 0.063626 -0.075229 -0.253117 0.052361 -0.196265 0.015470 0.240677 0.102202 0.148691 -0.097533 -0.230976 -0.192533 -0.150332 0.165392 -0.008221 0.287942 -0.134741 0.023875 -0.228305 -0.255041 0.346083 -0.040294 -0.028648 0.094490 -0.105490 0.024248 0.172776 -0.310695 0.017074 -0.091218 -0.363326 0.044096 -0.107567 0.236494 0.022261 0.000158 -0.198445 -0.040180 0.039437 0.207844 0.025166 0.161078 -0.006819 -0.128050 0.179191 0.354983 0.208860 0.123701 -0.073255 -0.167992 0.022599 0.184325 0.162369 0.046985 0.055108 -0.184948 0.303206 0.161496 0.010620 0.101873 -0.201705 0.059372 0.049413 -0.329988 -0.465240 0.437465 0.096134 0.025971 -0.007642 0.055348 
和 -0.179419 0.070615 -0.224964 -0.096488 0.111467 -0.047832 0.242982 -0.378091 0.035790 0.095240 -0.085770 -0.031999 -0.217033 0.010091 -0.016799 0.120670 0.183568 -0.300015 -0.494425 -0.064989 0.066575 -0.272215 -0.094147 -0.098812 -0.067790 0.067699 0.063581 -0.017004 0.112632 -0.014238 0.343546 0.079087 0.152511 0.313547 0.047885 0.052826 0.199759 -0.269223 0.041397 0.181771 0.181397 -0.159639 0.245503 -0.138345 0.114899 0.171337 0.119454 -0.233187 -0.235769 -0.094436 -0.194066 0.223342 0.348953 0.260165 -0.177999 -0.145403 0.195016 0.079008 0.040103 -0.373685 -0.139678 0.260062 0.046046 0.061474 0.022218 0.136190 0.078070 -0.048190 -0.109623 0.034640 -0.312312 -0.100826 -0.067861 0.050053 0.003058 0.055873 0.160018 0.166854 0.040471 -0.049194 0.443948 -0.439189 0.153576 0.010484 -0.303201 -0.196766 -0.082687 0.135776 0.172945 -0.187388 0.219771 0.225986 -0.007081 -0.158629 0.231719 -0.188240 0.264988 -0.253619 -0.013227 -0.411654 -0.160805 0.066675 0.210751 0.015150 0.095851 -0.186993 -0.236167 0.167648 -0.080909 -0.136810 -0.083701 -0.221590 0.218730 0.011367 0.032303 -0.026816 0.169573 0.075752 -0.321323 -0.024107 -0.250874 0.122558 0.305114 0.301723 -0.050094 0.081927 0.189005 0.046606 -0.300241 -0.315706 -0.101255 -0.051227 0.322659 -0.173575 -0.165735 -0.030258 0.022865 -0.248490 -0.022823 0.059326 -0.356584 -0.127159 -0.202997 -0.236927 -0.302245 -0.056571 0.016635 -0.247461 -0.179278 -0.096955 0.125368 -0.139663 0.172966 -0.146068 -0.146518 0.040558 -0.038393 0.023971 0.064009 0.026526 0.206498 0.077176 0.418304 -0.018402 -0.349978 0.040237 0.035136 0.026463 -0.314386 -0.276679 0.165908 0.152487 0.105739 -0.016562 -0.331077 0.034261 -0.374953 -0.156221 -0.212692 0.021940 -0.087894 -0.093148 -0.114477 0.154602 -0.048285 0.318082 -0.001066 -0.066053 0.149144 -0.036984 -0.102658 0.114464 0.074636 -0.006497 -0.090372 0.328923 -0.195031 0.267932 -0.168671 0.210471 0.067964 0.056776 0.181659 -0.405536 0.015471 0.029939 0.018938 -0.078403 0.066762 -0.200577 0.027207 -0.281999 0.119836 -0.050313 -0.178022 -0.006675 0.038276 0.081486 0.045971 -0.016503 0.315521 0.066080 -0.169385 -0.007997 0.216975 -0.012213 0.057748 0.226803 -0.109576 -0.134967 -0.040157 -0.091310 -0.163784 0.138498 0.139103 0.210490 0.101292 0.333813 0.149931 -0.204945 0.248079 -0.223276 -0.006406 0.045410 -0.060400 0.021417 -0.009274 0.153753 0.073266 -0.089655 0.287066 0.045633 -0.283439 -0.205564 -0.029267 -0.260858 0.017554 0.056271 0.202201 -0.150265 -0.163016 -0.026655 -0.195280 0.032767 -0.202718 0.113440 -0.161520 -0.000824 -0.044927 0.193333 -0.039974 0.095155 0.010841 -0.193128 0.290569 0.480092 0.266998 0.268150 0.275416 0.066820 0.087411 0.025817 0.173034 -0.076599 -0.149481 0.045356 0.147128 0.003066 -0.179076 0.105228 -0.202222 -0.157392 0.130753 -0.238307 -0.127340 0.090748 0.131080 0.117971 -0.159138 -0.087993 
” -0.070550 -0.061674 -0.217418 0.038361 -0.077832 0.072827 0.485954 0.018391 0.076757 0.133767 -0.247334 0.147531 0.082048 -0.062825 0.531747 0.220951 0.408483 -0.080085 -0.582296 -0.030985 -0.239437 -0.044650 -0.104605 0.086445 -0.118399 -0.044203 0.022558 0.008500 0.122056 -0.282560 0.159458 -0.169111 -0.113112 -0.292282 0.111556 -0.039497 0.064116 -0.184974 0.489480 0.114344 0.214457 0.210029 0.155923 -0.043571 -0.090021 -0.051911 0.108483 -0.425040 -0.136035 0.024034 -0.431187 -0.146402 0.293177 0.029154 0.033629 0.060803 0.261129 0.222357 0.204949 -0.098150 -0.269302 0.006575 0.306342 0.060488 -0.172742 0.291432 0.226397 -0.020514 -0.070852 0.060597 0.076961 -0.150802 -0.289215 -0.125924 0.034191 0.048578 0.093542 0.052414 0.001741 -0.089098 -0.053867 -0.273788 -0.138912 0.184115 -0.268320 -0.055466 0.125223 -0.085149 0.180233 -0.299057 0.092548 -0.100619 -0.012389 0.003662 0.088952 -0.146183 0.071982 0.175320 -0.119087 -0.178681 -0.233121 -0.036507 -0.053339 0.311356 -0.075288 -0.100248 0.092454 -0.132387 -0.053224 -0.164324 0.133008 -0.001965 0.063331 -0.067556 0.126639 -0.126669 -0.055792 0.036528 -0.019329 -0.194793 -0.525142 -0.071942 0.256314 -0.128607 -0.051385 0.100529 -0.052733 0.044781 -0.017767 -0.169070 -0.384803 0.011446 -0.047139 -0.055916 0.111960 0.130770 0.118238 -0.196596 0.060232 0.092200 -0.080721 -0.315807 0.012592 -0.021678 -0.225387 0.221654 -0.054225 -0.314462 0.133357 -0.149011 -0.098463 0.022996 0.023716 0.028432 -0.181643 -0.148541 0.018782 0.023929 -0.081798 -0.101145 -0.201265 0.143836 0.256293 -0.140465 -0.193232 -0.096815 -0.033212 0.002329 -0.314743 -0.264586 0.355791 -0.151704 0.126050 -0.128519 -0.271167 0.033727 -0.396545 0.267135 -0.103727 0.114804 -0.278148 -0.235577 0.009355 0.057620 -0.387601 0.014697 -0.114943 -0.268673 0.210354 0.025389 0.207413 0.213532 -0.175545 -0.033227 -0.118495 -0.124053 -0.247294 -0.133531 -0.170801 -0.204108 0.150352 0.014337 -0.116423 -0.096723 0.023928 -0.336734 0.246873 -0.109464 0.027527 -0.124312 -0.134031 -0.053892 0.071409 -0.050322 -0.193445 -0.070800 -0.115537 0.106995 0.215492 -0.204241 0.217415 0.086064 -0.193633 0.266320 -0.124716 -0.130728 -0.001849 0.325331 -0.141183 -0.043631 -0.102371 0.132662 -0.386609 0.191660 -0.139034 0.229202 0.230816 0.243141 0.002898 -0.128405 0.187041 -0.212466 0.114956 -0.176725 0.008494 -0.070815 0.047793 -0.030562 -0.258387 0.124661 0.542255 0.092936 0.051156 0.145600 -0.196689 -0.044388 -0.222616 0.074555 0.150103 -0.067189 -0.201201 -0.131975 0.095821 0.181432 -0.177761 -0.127607 -0.414217 0.057602 -0.307398 0.121820 0.130801 0.443429 -0.022813 -0.257777 0.318658 0.433368 0.118046 0.155033 -0.100100 -0.058732 -0.065602 0.212806 0.165037 0.112710 0.319564 -0.022476 0.004969 0.134122 -0.107177 -0.071097 -0.333636 -0.145846 -0.053818 0.190764 -0.180339 0.412194 0.210526 0.178310 0.033700 0.138253 
） -0.223664 -0.011912 -0.474479 -0.123321 0.062604 -0.065283 0.404352 -0.124751 -0.018335 0.230302 -0.206619 0.281532 -0.026488 -0.151261 -0.152076 0.052092 0.264424 0.011765 -0.442244 -0.056350 -0.143882 -0.048423 -0.173782 -0.135816 -0.221629 -0.144870 -0.280037 0.226175 0.067094 -0.010329 0.252487 -0.084699 -0.325935 -0.146262 0.260379 0.001959 -0.090231 -0.141895 -0.074656 -0.002502 0.107931 0.078400 -0.038305 0.115331 -0.183856 0.018269 0.029300 -0.224845 -0.034060 0.028409 0.033477 0.227155 0.196853 0.172079 0.047391 0.183983 0.328626 -0.044398 0.159529 -0.445152 -0.149061 0.091715 0.171986 -0.051874 -0.019708 0.205654 0.071893 0.001750 -0.170033 0.094716 0.029977 -0.333415 -0.410313 -0.164761 0.184849 0.046674 -0.041554 0.329539 -0.160368 -0.359374 0.075746 -0.500011 0.125232 0.201704 -0.113844 -0.048877 0.052669 -0.170857 0.376708 -0.096283 0.008119 0.143183 0.065003 0.039459 -0.044180 0.007205 -0.052441 0.101103 -0.159604 -0.308515 -0.495236 -0.293151 0.419319 0.042991 -0.133567 -0.292575 -0.223845 -0.108704 0.063221 0.089323 0.170859 -0.296474 0.021501 -0.333111 0.069568 -0.286771 0.204888 0.161977 0.137878 -0.050459 -0.309305 -0.058513 0.171899 0.166807 0.088791 0.018988 0.215257 0.210398 -0.043715 -0.238886 -0.204814 -0.194401 0.104491 -0.088791 0.117710 0.088503 0.069787 -0.410402 0.060705 0.021864 -0.233024 -0.386172 -0.202488 -0.056533 -0.144707 0.198593 -0.114388 -0.575024 0.147221 -0.240176 -0.311826 -0.021530 0.167382 0.014235 -0.176366 -0.121088 -0.219298 -0.114785 0.040293 0.102178 -0.289672 0.130890 0.156555 -0.073425 -0.193579 0.017102 0.146502 -0.009109 -0.337634 -0.056381 0.370426 -0.135709 0.194589 -0.108340 -0.330315 0.094256 -0.506006 -0.142091 -0.078088 0.186223 -0.230256 -0.329989 -0.125444 0.225342 -0.027232 0.294394 0.060990 -0.309159 0.076885 0.049378 0.065992 0.422350 -0.181968 0.058370 -0.082358 0.010160 -0.241716 -0.121119 -0.102139 0.035871 -0.285813 -0.022506 0.098890 -0.387950 -0.087915 -0.108178 0.035524 0.011999 -0.059150 -0.244747 -0.280797 0.073535 0.081070 -0.220728 -0.026564 -0.017370 -0.099289 0.078941 0.093586 -0.032317 0.115225 -0.245186 -0.206469 -0.248493 0.043230 0.029438 -0.151373 0.159562 -0.158907 0.042433 -0.124541 0.253036 -0.315613 -0.025089 0.192910 0.078551 0.120790 0.272225 0.142307 -0.102112 0.167912 -0.212838 -0.105905 0.100269 0.091826 0.063178 0.176178 0.153764 -0.000888 0.010435 0.602272 -0.103912 -0.290260 0.164536 0.033883 -0.125611 0.177901 0.050437 -0.079371 0.021878 -0.396981 0.353574 0.107148 0.061469 -0.202819 -0.031938 -0.324252 -0.045266 -0.002421 0.197150 0.207485 -0.068888 0.114456 -0.270038 0.258179 0.193747 0.321329 -0.157374 -0.141358 0.102562 0.253059 -0.016703 0.123905 0.240403 -0.026503 -0.080575 0.131812 -0.019165 -0.179701 0.129272 -0.146541 -0.003894 0.240382 0.105294 -0.004085 0.322341 0.023802 0.238295 -0.031307 0.067571 
, -0.045506 -0.141070 -0.154549 -0.187835 0.002016 0.119300 0.296254 -0.099403 0.197675 0.237063 -0.226347 0.357634 -0.016658 -0.080940 -0.217481 -0.041632 0.314862 0.081112 -0.335959 -0.105826 -0.341771 -0.070168 -0.020481 0.067167 -0.430679 -0.212797 0.095730 0.059756 0.272359 -0.248045 0.375396 -0.176806 -0.437809 -0.001224 0.202586 -0.120441 -0.010332 -0.195382 0.060362 -0.055521 0.085963 0.066333 0.358686 0.230225 -0.125018 -0.089437 0.403123 -0.079919 0.073595 0.066429 0.173218 -0.105541 0.102901 0.235769 0.017755 0.078948 0.192999 -0.165958 0.293030 -0.256218 -0.358333 -0.029365 0.104318 0.050570 0.052225 0.358442 -0.093013 -0.067717 -0.074133 0.210899 -0.045137 -0.277439 -0.158237 0.011249 -0.014688 0.157841 0.287400 -0.006790 0.098973 -0.461170 0.163520 -0.563638 -0.036565 0.175019 -0.185271 -0.088974 0.214858 0.004882 0.315569 -0.390842 -0.007784 0.286918 -0.258902 0.112011 -0.331818 0.013575 0.481120 -0.101939 -0.128344 -0.323023 -0.263145 -0.167926 -0.076642 0.131305 0.056422 -0.201910 0.373241 0.020610 -0.161167 -0.116274 0.139978 -0.248186 0.204491 -0.089845 0.296154 -0.520956 0.433997 0.124264 -0.099381 -0.304614 -0.477205 -0.150264 0.153726 0.171908 0.160689 0.020405 0.078676 -0.047545 -0.060597 -0.038660 -0.005329 -0.011789 0.130995 -0.046266 0.011095 0.238390 -0.145538 -0.046802 -0.081737 0.178432 -0.058396 -0.176268 0.009145 -0.096405 -0.344002 0.126805 0.110566 -0.298590 -0.086163 -0.330358 -0.277308 -0.202415 -0.062425 -0.079074 -0.059246 -0.235116 -0.309810 -0.180530 -0.158605 -0.201254 0.005609 0.313790 0.068872 0.047896 -0.031190 0.005573 -0.118286 -0.035772 -0.065213 -0.222967 0.140481 0.237956 0.078459 -0.014198 -0.114699 0.072778 -0.438073 0.029052 0.079137 0.062505 -0.167983 -0.048652 0.055474 0.197634 -0.157305 0.281202 -0.021857 -0.148554 -0.111724 -0.164687 0.016071 0.484618 -0.197987 -0.147377 0.063672 0.303570 -0.516548 -0.112600 -0.194645 -0.379221 -0.112967 0.206064 0.136939 -0.279237 -0.042277 0.146686 -0.148302 0.111413 0.203322 0.026254 -0.037997 -0.070747 0.041607 -0.217228 -0.107004 0.009694 0.268014 0.440611 0.064969 -0.310870 0.400030 -0.434881 0.029963 -0.307362 -0.044174 -0.171869 -0.206489 0.182167 0.009731 -0.133601 -0.049150 -0.096797 -0.130142 0.260099 0.373587 0.078416 0.129942 0.113481 -0.013093 -0.112274 -0.028837 -0.103968 -0.245992 0.304168 0.107620 -0.064761 -0.147500 0.162800 -0.128546 0.015439 0.535120 0.190867 -0.029045 -0.033868 -0.206343 -0.096489 -0.125314 -0.140201 -0.075778 0.099213 -0.237091 0.214985 0.197459 0.025946 -0.289514 0.168526 -0.295432 -0.012700 -0.273946 -0.077313 0.161977 0.320254 0.237633 -0.316223 0.010899 0.251416 0.021782 0.054419 -0.078282 -0.017028 -0.037117 0.128300 0.149885 0.158328 0.175372 -0.009381 -0.031590 0.146581 -0.053119 0.002269 -0.383826 0.127783 0.035152 0.477539 -0.097337 0.362594 -0.085417 -0.131301 0.012666 -0.080318 
为 -0.225113 0.105747 -0.227271 0.342257 0.026118 0.110529 0.229211 -0.068930 -0.278046 -0.224442 -0.224217 0.405979 0.013686 0.116276 0.247211 -0.023887 0.611597 0.011658 -0.302746 -0.191821 -0.068626 -0.097906 -0.136839 0.202502 -0.442635 -0.200887 -0.157950 -0.156357 -0.067105 0.001576 0.333371 0.106375 -0.273843 0.107447 -0.120084 -0.162747 0.154796 -0.309446 0.152532 0.225490 0.166520 0.325082 0.067006 -0.176084 -0.084971 -0.114163 0.133421 -0.026145 -0.281719 -0.010286 -0.172838 0.091462 0.388132 -0.069576 -0.004734 0.197325 0.467390 0.044380 -0.068912 -0.111983 -0.503505 0.105099 0.058754 0.137997 -0.169941 0.110682 -0.147894 0.079211 -0.003916 0.057567 -0.221155 -0.176116 -0.525554 -0.196501 0.146479 -0.132017 0.133753 0.078802 -0.345166 0.009143 0.009955 -0.344041 -0.063603 -0.308967 -0.121533 0.341029 0.065046 0.110227 -0.061805 0.051931 0.134043 0.484677 -0.300438 0.226276 0.022431 -0.281496 0.050086 0.198315 0.055298 -0.568295 -0.315558 0.024018 0.030809 0.141706 -0.178830 -0.249476 -0.115644 0.000840 -0.156741 0.218151 0.051704 0.031235 0.119113 -0.329339 0.084741 -0.030808 0.132042 0.074824 0.001184 -0.198865 -0.488755 0.014786 0.249831 -0.034312 0.158032 0.374135 0.149251 0.238039 0.234070 -0.272185 -0.206226 0.088119 0.303147 -0.065817 0.032767 0.342506 -0.068526 -0.023578 -0.052127 0.058592 -0.175280 -0.230047 0.245993 0.120956 -0.258681 0.014421 -0.119377 -0.203090 0.023904 -0.176025 0.085854 0.106171 0.154215 -0.273724 -0.123626 0.156750 0.064330 0.097875 -0.162738 -0.041897 -0.277871 -0.036798 0.123748 -0.152754 -0.445087 0.252091 -0.067856 0.336475 -0.464200 -0.006317 0.018693 -0.092211 0.152554 0.016302 -0.168176 0.019520 -0.374427 0.115120 -0.198490 -0.083107 -0.110811 -0.218589 0.065362 -0.039239 -0.059810 0.192004 -0.185263 -0.270523 -0.187645 -0.007177 -0.149672 0.225392 0.054729 0.033243 0.122439 0.265156 -0.131047 -0.081599 -0.111499 -0.003406 0.095316 -0.004968 0.279595 -0.206607 -0.272809 -0.267650 -0.038169 -0.155536 0.341528 0.091157 -0.227707 -0.178843 -0.100572 0.029854 -0.288634 -0.039740 0.041071 0.124983 0.216551 -0.190051 0.275937 -0.161460 0.077792 -0.110949 0.295677 0.233653 -0.063648 0.295036 -0.169567 -0.243691 -0.226223 -0.018709 0.181909 -0.080732 0.191728 0.044734 0.153905 -0.180744 0.125475 -0.130368 0.388581 -0.191569 -0.086212 -0.049169 0.107344 0.045202 0.142139 0.134519 -0.030931 -0.067476 0.360720 -0.032866 -0.553353 -0.192003 -0.224647 -0.199055 0.008318 -0.142159 -0.017268 -0.025266 0.030498 0.454156 0.064358 0.095280 -0.167214 0.152345 -0.139001 -0.032645 -0.082642 0.239813 -0.073836 0.202110 -0.079049 -0.150726 0.055666 0.210809 0.083374 0.053238 -0.008911 -0.158526 0.010418 0.110868 0.507391 0.185759 0.163145 0.162374 -0.162422 -0.020063 -0.021906 0.043084 -0.345601 -0.086802 0.153662 -0.169464 -0.072985 0.407265 0.122999 -0.123226 -0.028914 -0.028550 
我 0.005847 0.237270 -0.221660 -0.223302 0.306773 0.231420 0.107798 -0.022840 0.314712 0.163002 -0.209174 0.241368 -0.047275 0.071226 0.008205 0.015324 0.395375 0.087028 -0.375130 0.115687 0.078959 -0.228582 0.174827 -0.054640 -0.372245 0.025118 -0.074093 0.286968 -0.015748 -0.091072 0.196241 -0.274746 -0.214737 0.325283 0.065894 0.148970 -0.023490 -0.065984 0.446536 0.430989 0.282138 -0.143173 0.301012 -0.136157 0.239003 0.113168 0.155658 -0.129546 -0.407938 -0.193499 0.058895 -0.152792 0.034851 0.248751 -0.109698 -0.193446 0.046674 -0.046815 0.298175 -0.135807 -0.568986 -0.127878 -0.136727 0.066189 0.088840 0.129849 0.151528 0.042834 -0.267752 0.199460 -0.168199 -0.441987 -0.095510 -0.046327 0.093562 -0.255150 -0.006605 0.253280 0.127853 -0.234310 0.214459 -0.347628 0.219133 0.152263 -0.467989 0.085079 0.163522 -0.339347 0.161756 -0.234659 0.266037 -0.012229 -0.404327 0.095085 0.042075 -0.315048 0.193234 -0.081818 -0.172028 -0.215149 -0.098759 0.020641 0.103110 0.034272 -0.157806 -0.112219 0.172513 0.135286 0.035098 -0.037568 0.162617 -0.013461 0.382306 -0.011244 0.377614 -0.202280 0.294587 0.170841 0.073370 0.033054 -0.092218 -0.004035 0.134139 0.220974 -0.025332 0.337392 0.334419 0.102310 -0.097635 -0.206013 -0.431350 -0.048657 0.032827 -0.167135 -0.026545 0.150958 0.070988 -0.160999 -0.052931 -0.090010 -0.286489 -0.389957 0.209922 -0.116171 -0.176041 0.223099 -0.161205 -0.071311 0.095631 -0.243773 -0.119099 -0.138928 0.059507 -0.200564 -0.216399 -0.200612 -0.033861 0.086872 0.042422 -0.054753 -0.042669 0.134913 0.144978 -0.094242 -0.306671 0.110110 -0.045831 0.031812 -0.100441 -0.109964 0.357046 -0.069259 0.300872 -0.263168 -0.354872 -0.091518 -0.220349 -0.114509 0.175637 0.135507 -0.142314 -0.112890 -0.040073 0.054561 -0.039580 0.212577 -0.265029 -0.152087 -0.064309 -0.080199 -0.190788 0.328212 0.074859 -0.054979 -0.012910 0.109050 -0.430566 0.120092 -0.168194 -0.063944 0.260441 0.060581 0.079602 -0.044465 0.010976 -0.232204 0.091355 -0.121249 0.214804 -0.136513 0.036877 -0.156137 0.146712 -0.049301 -0.236411 -0.230118 0.165631 -0.229399 0.325871 0.036925 0.113074 -0.229092 0.062049 0.051730 0.043723 0.160666 0.069403 -0.021324 -0.151204 -0.204101 0.138113 -0.170908 -0.240604 0.090522 -0.119182 0.112126 0.290383 0.119296 0.178764 -0.036111 -0.261085 -0.411156 -0.335358 0.273873 0.119921 0.078677 -0.072186 0.109767 -0.077732 -0.086886 0.344990 0.111906 -0.027459 0.068846 0.169547 -0.054932 -0.021968 -0.434311 0.312163 0.164078 -0.072013 -0.148181 -0.121475 0.121017 -0.025332 0.191257 -0.265134 0.133191 -0.034701 0.245975 -0.065059 0.139707 0.150853 -0.314487 0.330503 0.227596 0.182942 0.123211 -0.024841 -0.146534 0.098683 -0.051715 -0.029792 -0.027209 0.154007 0.094168 0.231726 0.095595 0.075024 0.060609 -0.315973 -0.187621 -0.098570 -0.282980 -0.315620 0.059695 0.067806 -0.016900 -0.076253 0.137349 
是 -0.147241 0.049185 -0.113598 -0.148456 0.168860 0.223902 0.221970 -0.177439 0.294452 0.049286 -0.125660 0.203868 -0.069000 -0.081578 0.165064 -0.073676 0.336267 0.116427 -0.615337 0.050974 0.071278 -0.181158 -0.039099 -0.137129 -0.200963 -0.204387 -0.042121 0.305976 0.074579 -0.155790 0.176828 0.061513 -0.195385 -0.018721 -0.038522 0.051949 0.223184 -0.368490 0.338712 0.073951 0.221139 0.133197 0.129117 -0.302329 0.112230 0.101720 0.235272 -0.284459 -0.387894 -0.020174 0.046502 0.097001 0.133253 0.040640 0.111174 -0.046746 0.198720 0.036104 0.206115 -0.204946 -0.447068 0.025428 -0.068225 -0.085466 0.005693 0.099755 0.246443 -0.190737 -0.171317 -0.029798 -0.174712 -0.157622 -0.210499 0.061246 -0.312421 -0.030943 0.146892 0.083700 -0.035314 -0.105419 0.375022 -0.134902 0.275455 -0.059640 -0.408941 0.054041 0.104399 0.123898 0.292933 -0.182316 0.051711 0.334882 -0.184307 0.189599 -0.008665 -0.228637 0.149230 0.055925 -0.031321 -0.367079 -0.489382 -0.049475 0.028005 -0.162073 -0.165541 -0.089687 -0.232323 0.198628 -0.185448 0.069998 -0.000934 -0.027204 0.277483 -0.047830 0.210133 -0.106404 0.159566 -0.053885 -0.034914 -0.319234 -0.249727 -0.030191 0.283287 0.148301 -0.050498 0.273232 0.199667 0.031833 0.026461 -0.144940 -0.265231 -0.186701 0.136847 -0.024565 0.129581 0.184018 0.090321 -0.258940 -0.016842 -0.128724 -0.331071 -0.189308 0.028276 -0.137000 -0.033481 -0.030429 -0.034196 -0.022731 0.226657 -0.150787 -0.051617 0.250016 0.056771 -0.048472 -0.041921 -0.089466 -0.108801 -0.074576 0.103501 -0.220049 -0.046601 0.064905 0.251556 0.019075 -0.266565 0.177369 -0.028840 0.087405 -0.259658 0.022413 0.094414 -0.013063 0.229261 -0.116144 -0.265768 -0.035983 -0.331010 -0.053302 -0.076682 -0.049604 -0.248223 0.013807 -0.161988 0.030444 -0.285965 0.089340 0.032333 -0.190357 -0.139837 -0.081170 -0.086381 0.046419 -0.076617 -0.123069 -0.152913 0.076790 -0.307646 0.139654 -0.140276 0.114086 -0.024098 0.021440 -0.082769 -0.346242 -0.110102 0.048046 -0.001784 -0.332677 0.237338 -0.065015 0.007755 -0.022113 0.061301 0.003806 -0.023937 -0.005352 -0.168635 -0.086255 0.161115 -0.151909 0.170969 -0.186749 -0.264306 0.146469 0.088980 0.051373 0.036936 -0.014773 -0.170218 -0.036644 0.031527 -0.041949 -0.228342 -0.012886 -0.016612 0.088271 0.068353 0.162093 0.256524 -0.215094 0.146492 -0.212123 -0.181312 0.165470 0.083600 0.048809 -0.035739 0.137927 0.129995 -0.050938 0.312336 0.104182 -0.167108 0.000984 -0.040368 -0.213243 0.084372 -0.279533 0.147921 -0.053449 -0.114107 -0.146071 -0.114470 0.257284 -0.184827 -0.102580 0.043543 0.008802 -0.116469 -0.061159 -0.150589 0.235114 0.162110 -0.303299 0.139033 0.476139 0.251172 0.135394 -0.018600 -0.026162 -0.034286 -0.087744 0.173701 -0.005062 -0.158265 0.070630 0.175467 -0.012076 -0.096705 0.104648 -0.251537 0.144082 -0.081583 0.004748 -0.511208 0.223713 0.067012 -0.122302 -0.034076 -0.001168 
有 -0.291650 0.019956 -0.258487 -0.093187 0.227459 0.340505 0.197139 0.149222 0.089411 -0.055330 -0.176775 0.367145 -0.024796 0.099865 0.437947 0.172006 0.366707 -0.038498 -0.392940 -0.060785 -0.069893 -0.207545 0.030087 0.079765 -0.135722 0.161704 -0.138191 0.216959 0.173349 0.014377 0.405819 0.062001 -0.059994 0.190212 0.162814 0.285978 0.371801 -0.254152 0.049120 0.183632 0.130968 0.248547 0.015050 -0.249704 0.140375 -0.120629 0.057608 -0.128128 -0.424740 -0.073280 -0.090418 0.024361 0.177746 0.246062 0.071198 -0.183108 0.220534 -0.015234 0.048726 -0.513141 -0.489349 -0.077145 -0.214397 0.185809 0.110106 0.298006 0.093196 -0.232862 -0.047884 0.128277 0.016887 -0.289255 0.020255 -0.208690 0.079021 -0.019966 0.033231 0.215397 0.011213 -0.206286 0.293556 -0.249770 -0.020326 0.258804 -0.419790 0.056271 0.090885 -0.341151 0.334387 -0.072066 0.205587 0.162899 -0.343410 0.005522 0.064310 -0.196287 0.195303 -0.232660 -0.202402 -0.178850 -0.358388 0.248891 -0.193168 -0.000527 -0.070373 -0.030726 0.164460 0.202522 -0.305695 -0.015127 -0.014816 -0.074788 0.186212 -0.086324 0.079497 -0.076560 0.072918 0.186596 0.280192 -0.009561 -0.137835 0.034572 0.272370 0.166156 0.176229 0.180774 0.274086 -0.272067 -0.116852 -0.102527 -0.110178 -0.208279 0.278187 -0.403512 0.109993 0.169942 0.182199 -0.229531 0.245302 0.014523 -0.315815 -0.061157 -0.057762 0.078973 -0.170754 0.246805 -0.141440 0.064045 0.152541 -0.285437 -0.067076 -0.046626 -0.242612 -0.320983 -0.309532 -0.203238 -0.098530 -0.155428 -0.014584 -0.078318 0.048266 0.218679 -0.115014 -0.071249 -0.300875 0.170935 0.312274 0.139370 -0.267653 0.093441 0.030941 0.213586 0.154049 0.005969 -0.164763 -0.208601 -0.321026 0.040077 -0.241755 -0.077716 -0.166252 -0.146271 -0.297353 0.191050 -0.071363 0.098128 -0.046570 -0.177411 0.131711 0.040228 -0.069293 0.210625 -0.100917 0.043398 0.125919 0.180652 -0.277996 0.219081 -0.045516 -0.111908 -0.031298 0.329120 0.101954 -0.374367 -0.182545 -0.123598 0.134318 0.003725 0.226448 -0.156328 -0.122839 0.029796 0.050985 -0.342509 -0.324579 -0.194645 -0.226726 -0.066831 0.312028 0.040503 0.189679 -0.252558 -0.337323 -0.016952 0.091089 -0.152508 -0.217580 0.091436 0.083349 -0.095656 -0.101969 0.059493 -0.061148 -0.043477 -0.333820 -0.109144 0.089159 0.140511 0.425830 -0.145643 -0.041297 -0.393376 -0.173160 0.194071 0.055415 0.396111 0.103932 0.013400 0.050142 -0.023890 0.422805 0.093394 -0.186164 0.087440 -0.291602 0.184116 -0.111862 -0.273008 0.053787 0.033694 -0.394027 -0.173779 -0.382854 0.356272 -0.174504 0.140913 -0.143569 0.038782 0.006461 0.360104 0.053830 -0.098602 0.115111 -0.197696 0.350221 0.240511 0.327902 0.235248 0.175503 0.211726 0.024740 0.089788 0.287644 0.115069 0.043269 -0.185143 0.010025 0.026894 -0.002651 -0.009991 -0.414889 -0.009494 -0.048768 -0.123408 -0.131727 0.072841 -0.120763 0.067356 -0.226755 -0.025559 
与 -0.170874 0.128122 -0.056733 0.140465 0.170404 -0.184749 0.188699 -0.223242 -0.032675 0.095401 -0.121921 -0.050043 -0.129993 0.215268 0.200850 0.168256 0.378034 -0.276551 -0.316586 0.143348 0.007090 -0.192066 -0.321860 -0.028557 -0.078590 -0.035002 -0.054766 -0.004449 -0.040571 -0.137070 0.212985 0.235379 0.003648 0.218428 0.038757 0.087471 0.181564 -0.427552 0.118212 0.228091 0.150202 0.130409 0.113813 -0.027420 0.070209 -0.164424 0.071448 -0.103010 -0.236567 -0.010114 -0.087925 0.252690 0.342180 0.074140 -0.063703 0.067100 0.468486 0.055390 0.021296 -0.215707 -0.199481 0.280033 0.120847 0.208564 -0.011325 -0.063665 0.022049 -0.154896 0.078365 -0.004895 -0.183641 -0.193832 -0.163039 -0.038186 0.015222 -0.017359 0.382080 0.187177 0.145609 -0.017125 0.191652 -0.544396 0.099908 -0.231854 0.136562 -0.144128 -0.014416 -0.046506 0.124541 -0.421088 0.238605 0.352317 -0.039121 -0.202121 0.063172 -0.336071 0.224993 -0.219672 -0.079172 -0.370504 -0.363471 0.073400 0.295897 -0.076774 0.149477 -0.268567 -0.151889 0.091171 -0.176175 -0.075282 -0.021883 0.064501 0.105355 -0.123875 0.207852 -0.217145 -0.062135 0.341842 -0.119118 0.024256 -0.435737 -0.041580 0.216595 0.160510 0.111382 0.175942 -0.067703 -0.055522 -0.360251 -0.248351 -0.205186 0.274055 0.374350 -0.048528 -0.171355 0.212484 0.127007 -0.299159 0.253885 0.135596 -0.193544 -0.341616 -0.135880 -0.250993 -0.139149 -0.054228 -0.037217 -0.142043 -0.127691 0.004638 0.087845 -0.124729 0.096586 -0.040534 -0.033975 0.027385 -0.007512 0.039709 0.115434 -0.079005 0.097489 0.115787 0.307834 0.188145 -0.298530 0.085816 0.043798 -0.126551 -0.370149 -0.198925 0.029007 0.153495 0.314060 -0.126809 -0.142806 0.106102 -0.299361 -0.124041 -0.292983 -0.096008 -0.145264 -0.149094 0.035188 0.005802 -0.228948 0.251476 0.070470 -0.136886 -0.046376 0.042491 -0.185672 0.099585 0.201876 0.105710 -0.145385 0.383917 -0.221122 0.331454 -0.033507 0.244351 0.006376 0.107164 0.186690 -0.291428 -0.113446 0.056722 -0.049381 -0.206411 0.059546 -0.160205 0.165180 -0.482233 0.065772 -0.212532 -0.076271 -0.173886 0.133191 0.132100 -0.157388 -0.030282 0.259094 0.038480 0.078847 0.092082 0.274989 -0.073190 0.066239 0.444703 0.027881 -0.122540 0.129347 -0.189534 0.089052 -0.063234 0.008970 0.088668 0.011404 0.155136 0.444120 -0.124750 0.414269 -0.369591 -0.225601 -0.234230 -0.076836 0.112826 0.127632 0.152807 0.056751 0.139998 0.432148 0.089007 -0.229107 -0.134675 -0.126329 -0.279673 -0.242002 -0.014238 0.130000 -0.146307 -0.246326 0.128098 -0.087670 -0.110322 -0.323466 -0.081808 -0.110107 -0.008265 -0.167443 0.228490 0.074489 0.224589 0.072079 -0.091461 0.137181 0.552599 0.373623 0.365845 0.192842 -0.043307 -0.122262 0.096515 0.184476 0.303230 0.105122 -0.123532 -0.023482 0.062479 -0.411023 0.128294 -0.265656 -0.130222 0.026235 0.027735 0.130801 0.067378 0.043404 0.071429 -0.150625 -0.118244 
也 -0.104575 0.306323 -0.293004 0.171308 0.048842 0.110064 0.130496 -0.327781 0.161823 -0.007526 -0.163106 0.021191 -0.057325 0.030779 0.069781 0.024297 0.147565 0.075063 -0.471396 0.122752 -0.025976 -0.290388 -0.126287 0.059916 -0.062721 -0.099418 0.033163 0.081372 0.080141 -0.096726 0.130613 0.081577 -0.104132 0.023856 0.054686 0.059017 0.004452 -0.189799 0.470633 0.050520 0.213427 0.032050 0.254664 0.038245 0.109277 -0.055213 0.156366 -0.294814 -0.404625 -0.163029 0.134888 0.124399 -0.013130 0.125607 -0.051986 -0.016952 0.180246 -0.025033 0.268740 -0.211988 -0.293581 -0.078755 -0.006617 0.088144 0.162238 0.067293 0.130125 -0.254864 -0.246621 0.272074 -0.087789 -0.219273 -0.087288 0.054810 0.045378 -0.000213 -0.102887 0.127426 0.051536 -0.105832 0.320064 -0.130902 0.006299 0.088296 -0.389036 -0.021509 0.061300 -0.149250 0.336656 -0.158148 0.166549 0.162898 -0.280318 -0.205787 0.046422 -0.371309 0.034758 -0.098192 -0.013542 -0.507221 -0.340565 -0.040992 0.093621 0.183085 -0.150576 -0.148176 0.147034 0.191147 -0.252318 -0.127350 0.046575 -0.098378 0.255602 -0.073538 0.226185 -0.229935 0.163058 0.136141 0.041127 -0.014042 -0.391921 -0.098633 0.063798 0.133387 0.034667 0.096987 0.124046 0.035634 -0.293373 -0.257562 -0.348032 -0.194102 0.206927 -0.249295 0.103626 0.168140 0.063943 -0.197338 -0.021104 -0.127906 -0.102785 -0.341130 0.114424 -0.016399 -0.208121 0.044297 -0.013924 -0.346602 0.068382 -0.336000 -0.054828 0.027318 -0.142738 -0.207181 -0.073496 -0.301019 0.032631 -0.252021 0.057226 -0.130584 -0.088152 -0.063348 0.058305 -0.052276 -0.313457 0.274747 0.059217 0.124250 -0.283426 -0.094595 0.224046 -0.075136 0.002467 -0.064110 -0.177692 -0.006055 -0.214801 -0.150065 -0.150005 0.039588 -0.141302 -0.084202 -0.201134 -0.036058 -0.202246 0.105729 -0.295941 -0.279479 -0.043439 0.022216 0.021243 0.442715 -0.093144 -0.094373 0.072125 -0.027339 -0.254342 0.201848 -0.195277 -0.034160 0.045830 -0.016278 0.169851 -0.330551 -0.115388 -0.148976 0.102054 -0.062187 0.399802 0.138686 0.121889 -0.310232 0.307323 -0.221857 -0.230858 -0.128739 0.000327 -0.058476 0.164731 0.028633 0.271881 -0.273853 -0.238076 0.197330 0.208255 0.011855 0.017864 -0.143209 -0.047861 -0.000359 -0.039818 0.187106 -0.082502 0.169884 -0.074845 0.025125 0.123668 0.265175 0.166265 -0.356316 0.002595 -0.442178 -0.159868 0.239677 0.124324 0.247428 -0.267980 -0.053425 0.056728 0.135608 0.203772 -0.045103 -0.266602 -0.041198 -0.180058 -0.139072 0.174719 -0.215367 0.003936 -0.084547 -0.351312 -0.147051 -0.458819 0.296813 -0.170585 0.051246 -0.291184 0.089582 -0.059375 0.088148 0.026548 0.072211 -0.040464 -0.268259 0.256416 0.435382 0.286512 0.134495 -0.030946 -0.401440 0.045139 0.012286 0.359387 0.209418 -0.067502 0.022640 0.161806 -0.098464 -0.065102 0.107792 -0.355627 0.044019 -0.164307 -0.107395 -0.348222 0.201402 -0.066421 0.311330 -0.039020 0.051504 
人 -0.028555 0.007780 -0.122529 -0.162356 0.189279 0.133687 0.129163 -0.219643 0.276913 0.059208 -0.261591 0.152381 -0.216655 0.159454 0.105981 0.040484 0.301977 0.302162 -0.393275 0.121098 -0.114108 -0.303693 0.132696 0.027859 -0.184440 0.033541 -0.177633 0.216585 0.078963 -0.069921 0.035419 0.106886 -0.219558 0.075754 0.037104 0.189884 0.094516 -0.395012 0.282494 0.218189 0.007145 -0.064083 0.289033 0.050595 0.042363 0.034243 0.248273 -0.163414 -0.339914 -0.153174 0.038547 -0.079945 0.030829 0.396666 -0.250489 -0.195579 0.082794 -0.276527 0.330975 -0.338982 -0.335198 -0.044012 -0.188943 0.195329 0.098912 0.172882 0.301613 -0.077440 0.056171 0.130932 -0.149715 -0.319769 -0.199509 -0.032326 -0.122926 -0.117292 -0.056347 0.262624 0.082498 -0.227656 0.285770 -0.295345 0.099031 0.158231 -0.441209 0.109583 -0.028316 -0.158876 0.058201 -0.263794 0.299492 0.494941 -0.156336 -0.008306 0.079762 -0.395384 0.292229 -0.173685 0.003261 -0.184297 -0.283401 0.188476 0.157665 0.014599 -0.128113 0.091367 0.045478 0.018817 -0.176151 -0.124127 -0.401702 0.008682 0.182353 0.094125 0.140037 -0.214955 0.101694 0.299097 0.008879 0.287109 -0.300810 -0.112386 0.246464 0.121791 0.054021 0.257077 0.107136 -0.140849 -0.223571 -0.047393 -0.214322 -0.137007 0.272688 -0.235882 0.095632 0.350758 -0.077880 -0.257358 -0.114612 -0.146502 -0.100158 -0.246280 -0.112763 -0.110311 -0.043601 0.186873 -0.101258 -0.132592 0.010540 -0.118698 -0.045463 -0.089656 0.002054 -0.094223 -0.195785 -0.570769 0.112058 -0.140703 0.029226 -0.005439 -0.116535 0.008715 0.510271 -0.394668 -0.347526 0.077057 0.175202 -0.105028 -0.178996 0.216192 0.146243 -0.110073 0.398133 -0.148316 -0.001070 -0.056475 -0.374846 0.215010 -0.120574 0.157266 -0.271792 0.185711 0.113641 0.078758 -0.062443 0.149940 -0.031777 -0.171975 -0.125091 0.097986 -0.052597 0.357793 0.044324 0.001715 -0.148083 0.074510 -0.257836 0.085930 -0.313579 0.075470 -0.192280 0.018746 0.198121 -0.302087 -0.079452 -0.130299 -0.033112 -0.018492 0.258775 0.136089 -0.152122 -0.206017 0.008230 -0.025364 -0.298961 0.077196 -0.060808 -0.071283 0.029280 -0.280181 0.336839 -0.146410 -0.041834 -0.159144 0.077968 0.072677 0.051394 -0.018014 -0.386424 -0.164372 0.022825 0.123641 -0.304909 0.236406 -0.043528 0.013031 0.234187 0.196935 0.403687 -0.004005 -0.056085 -0.204648 0.234677 0.543079 0.305099 -0.112946 -0.086385 0.221268 -0.217526 -0.140507 0.121806 0.009973 -0.187303 -0.008317 -0.036385 -0.147900 -0.127759 -0.046497 0.013076 0.029417 -0.161503 -0.126794 -0.043351 0.132528 0.140554 -0.363720 -0.034995 -0.175902 -0.176489 0.093455 0.261655 0.007870 0.079290 -0.178532 0.130063 0.226290 0.148813 0.022809 0.009996 0.050985 -0.100118 -0.035892 0.170659 -0.071448 0.122768 -0.264598 0.069880 -0.045540 0.102038 0.206871 -0.157603 -0.020131 -0.147021 0.035178 -0.121493 0.335628 -0.156098 -0.225187 -0.207353 0.103573 
月 0.226594 -0.004769 -0.229649 -0.013616 -0.194407 -0.309040 0.257356 -0.307602 0.125053 -0.048047 -0.415981 0.244538 0.047504 -0.042815 0.263761 0.091861 0.228787 0.171197 -0.147519 0.023122 0.199268 -0.094348 -0.272242 -0.282209 -0.035107 -0.328911 -0.218074 0.171190 -0.117378 -0.258132 0.197423 -0.022705 -0.492819 0.000566 -0.234396 0.187962 -0.156430 0.071640 0.218683 0.228998 0.026382 -0.281573 -0.297790 0.457344 -0.082661 0.468560 -0.001183 -0.093135 -0.289438 -0.431606 0.017262 0.044327 -0.101518 0.170043 -0.210779 -0.160519 0.032157 -0.062611 -0.136116 -0.179211 -0.295936 0.199851 -0.110812 0.386692 -0.138149 -0.100055 0.030442 0.248445 0.086499 -0.280897 -0.089837 -0.017427 -0.645092 0.212394 -0.310463 -0.015789 -0.227950 0.343517 0.000816 -0.348797 0.410568 -0.402964 0.069009 0.032010 -0.048454 -0.014059 -0.117905 -0.039184 -0.136577 -0.174630 -0.191483 0.136852 -0.161683 -0.179083 0.195414 -0.235762 0.290908 0.261341 -0.065609 -0.204316 -0.319617 0.100530 -0.088398 0.091299 0.030333 -0.203188 -0.024462 0.302473 0.116263 0.012948 -0.210610 0.027967 0.035931 0.035157 -0.089356 -0.400612 0.525107 0.280211 0.441261 0.075599 -0.002458 -0.206355 -0.106249 0.167870 -0.046140 0.184907 -0.183259 0.205474 -0.216761 -0.248719 -0.017722 0.109449 0.323490 0.234286 -0.250864 0.368931 -0.121626 -0.015563 -0.037517 0.267491 -0.231520 0.025410 0.186286 -0.079177 -0.317248 0.125276 0.261516 -0.366133 -0.252970 -0.399990 0.068207 -0.117144 0.079707 -0.077878 -0.259468 -0.131843 -0.074116 0.003239 0.085373 0.184189 -0.019792 0.253966 -0.012332 -0.019548 -0.113291 0.063456 0.174536 -0.101060 -0.356679 0.004869 0.316177 0.097573 0.177913 0.091749 -0.302457 -0.199317 -0.217245 0.077906 -0.116281 0.065009 -0.390135 -0.194949 -0.041534 0.000072 -0.099503 0.073039 -0.214153 -0.177863 -0.188057 0.010902 0.120591 0.116925 -0.186473 0.261863 0.017751 0.170849 -0.071481 0.069927 -0.188876 0.073621 -0.080614 -0.101438 0.023751 -0.131112 -0.196459 0.154041 0.002045 0.272599 0.415761 0.203562 -0.483331 0.075961 0.217393 -0.271533 0.126998 -0.487443 0.045501 -0.036258 0.347702 -0.285817 0.157517 0.074414 0.184067 0.140559 -0.146913 -0.020847 0.012687 -0.295984 -0.348366 -0.456383 -0.077920 0.016207 -0.093047 -0.009899 0.382910 -0.008018 -0.166056 0.224552 -0.019058 -0.183271 -0.288267 -0.369357 -0.108556 -0.221236 0.127112 -0.031691 -0.025785 0.043029 -0.017252 -0.055382 0.098160 -0.143295 0.200469 0.200914 0.148033 -0.065933 0.055192 -0.067999 0.228793 0.104727 -0.196982 0.277753 -0.115917 -0.363831 0.014596 -0.288624 -0.035494 -0.145734 0.165519 -0.090334 0.039570 0.445894 0.269420 -0.187585 0.064372 -0.024149 0.073145 0.108362 0.107120 -0.144870 0.544999 0.471297 0.156146 -0.055802 0.222602 0.063762 -0.116342 0.082709 -0.108241 0.216232 -0.289700 -0.025889 -0.145297 -0.356156 -0.145729 0.274828 -0.245549 0.541276 -0.140482 0.241856 
中 -0.228166 0.028588 -0.228098 0.305939 0.210639 0.107414 -0.021897 -0.050961 -0.215423 0.060941 -0.221055 0.350481 -0.029364 0.005818 0.219707 0.234295 0.356977 0.032046 -0.459067 0.235538 0.159519 -0.147965 -0.001880 -0.178670 -0.115880 0.059153 0.036479 -0.234384 0.058346 -0.107189 0.148556 0.095159 0.019078 0.366636 -0.199490 0.096704 -0.089561 -0.328341 -0.001304 0.189981 0.018284 -0.070070 0.037722 0.031595 -0.052617 -0.078206 0.108724 -0.225956 -0.101804 -0.110933 0.101035 0.046180 -0.079620 0.167950 -0.153465 -0.141258 0.254516 -0.056921 0.191452 -0.342490 -0.153198 0.088516 0.126488 0.335596 -0.133195 0.187998 0.162545 0.260429 -0.322146 -0.010214 -0.022444 0.164321 -0.144575 0.018813 -0.023862 -0.200102 0.077637 0.303035 0.070811 0.111305 0.137632 -0.458508 0.037990 0.152181 -0.206221 0.146131 0.167073 -0.111945 0.546643 -0.025730 0.165026 0.158844 0.099491 0.124176 -0.327762 -0.366810 0.258414 0.095106 0.022595 -0.075821 -0.311171 -0.106286 0.425411 -0.003261 0.074472 -0.316459 -0.073058 0.055350 -0.050467 -0.173741 0.130340 0.154565 0.274584 -0.038099 0.341648 -0.019221 -0.021187 0.272905 0.019353 0.105696 -0.089967 0.031273 0.284778 0.014946 0.202674 0.157322 -0.044705 0.045873 -0.230277 0.017441 -0.336597 -0.090268 0.317246 -0.038406 -0.089327 0.089380 0.023856 -0.210132 -0.012734 -0.001782 -0.378892 0.041255 -0.175916 -0.031034 -0.253923 0.014540 -0.115582 0.043600 -0.169098 -0.155456 0.350545 0.022609 0.077653 -0.245674 0.087197 -0.203544 -0.107602 -0.350366 0.011986 -0.042736 0.060051 -0.025579 0.320104 0.141113 -0.423394 0.072579 0.037969 0.223407 -0.238244 -0.107421 0.256396 0.048987 0.268916 -0.038931 -0.345812 -0.046969 -0.372190 -0.036351 -0.429572 0.181328 -0.253579 -0.189909 0.065429 0.255271 -0.079137 0.117492 -0.158794 0.068540 -0.363270 0.307763 -0.134512 0.087576 -0.015776 0.011233 0.061485 0.376922 -0.112819 -0.239299 -0.052178 0.165668 -0.016960 0.042067 -0.175167 -0.401426 -0.193959 -0.243604 0.056638 -0.306577 0.331852 0.195100 -0.069212 -0.072462 0.066673 -0.207724 -0.204464 -0.221384 -0.066041 0.104875 0.053182 -0.244507 -0.014139 -0.272517 -0.119964 0.086723 0.010610 0.108229 -0.044854 0.011283 -0.096684 -0.024237 -0.049604 -0.031269 -0.270227 -0.100794 -0.091473 -0.243169 0.045709 0.336322 0.443822 -0.197421 0.112837 -0.090995 0.091003 0.030824 0.008291 0.233318 0.028202 -0.169414 0.056592 0.053082 0.442940 0.215233 -0.396286 0.140568 -0.053684 -0.190282 0.004105 -0.243894 -0.047197 -0.114540 -0.320196 -0.063007 0.257560 0.005914 -0.084725 -0.005517 -0.442392 0.105036 -0.188057 0.118193 -0.053426 0.281060 -0.168126 -0.038421 -0.050181 0.492967 0.047645 0.221677 -0.032519 -0.149437 0.226592 0.188692 0.314248 0.112699 0.125600 -0.096229 0.023220 -0.023606 -0.410542 -0.010666 -0.406286 0.033378 -0.022768 -0.031779 -0.330257 0.092619 -0.049676 -0.126935 -0.153109 0.190950 
等 0.274737 0.046562 -0.152482 -0.032023 0.156906 -0.033953 0.450278 -0.482556 0.085220 0.315267 -0.311356 0.301645 -0.103532 -0.016128 -0.049430 0.059782 0.021737 -0.142122 -0.285407 0.051766 0.037267 -0.195623 -0.067941 -0.152083 -0.090973 0.030601 0.000889 -0.062885 -0.015816 0.012820 0.108352 -0.247545 -0.240234 0.055709 -0.142471 -0.024848 0.248758 -0.258502 0.224962 0.199811 0.380819 0.055339 0.017990 -0.122687 0.088403 0.235660 -0.197648 -0.415437 -0.111029 -0.128804 0.110395 0.271116 0.143217 0.261195 0.081168 -0.081167 0.197820 0.044842 0.147527 -0.411192 -0.220027 0.125733 0.099781 0.145640 -0.085268 0.232945 -0.138517 -0.165817 -0.187265 0.128689 0.148619 -0.259558 -0.004430 0.168857 0.066513 0.084277 0.051584 0.146283 0.104294 -0.095966 0.366269 -0.246051 0.006374 0.226837 -0.170064 -0.220092 -0.070321 0.192687 0.041276 -0.083212 0.080629 0.239044 -0.011537 0.001384 0.247636 -0.242719 0.217506 -0.022629 -0.049959 -0.351184 -0.293923 0.107774 -0.123559 -0.088108 0.041250 -0.304025 -0.129451 0.072409 -0.158435 0.063224 -0.187750 0.020149 0.017661 -0.068636 0.230065 0.093506 0.136822 0.000207 -0.084455 -0.057701 -0.254635 0.061282 0.143983 -0.015191 0.103708 -0.043328 -0.052564 0.325354 -0.419147 -0.195077 -0.032452 0.032021 0.360520 -0.200686 0.134650 0.027226 -0.116553 -0.253628 0.095825 0.146427 -0.213941 -0.314606 -0.037811 -0.014046 -0.227238 -0.269933 0.040015 -0.468961 -0.097568 -0.128141 -0.091809 -0.002589 0.061357 -0.049820 -0.197200 0.234791 -0.179541 -0.091816 0.200001 0.099200 0.025129 0.107956 0.194998 -0.025732 -0.338973 0.036125 0.203381 0.150238 -0.460656 -0.004944 0.232722 -0.133355 0.306334 0.078649 0.023264 -0.082876 -0.317524 -0.141070 -0.234241 -0.006645 -0.053586 -0.141893 0.140234 0.352399 -0.264737 0.232116 0.012368 0.142868 0.035356 -0.014049 0.138961 0.377277 -0.003631 0.000066 0.037985 0.144420 -0.231810 0.053593 -0.238778 0.186667 0.140030 -0.063902 0.249104 -0.349452 -0.037337 0.035841 -0.035755 -0.105366 0.036135 -0.212106 0.182053 -0.301599 0.108020 -0.255675 -0.068306 0.003150 0.083970 0.168230 0.076542 -0.243723 0.135260 -0.031670 -0.342730 -0.096964 -0.005277 -0.210463 0.048101 0.103575 -0.123229 -0.038754 0.002386 0.216636 -0.332486 -0.104029 -0.107661 0.048534 0.262720 0.420209 0.155609 -0.102180 -0.042785 -0.299112 -0.052963 0.041131 -0.005523 0.084236 0.144862 0.124174 -0.015480 -0.025519 0.119214 -0.125188 -0.163969 -0.056190 -0.037975 -0.144567 -0.175343 0.110065 -0.012645 0.163978 -0.371091 -0.239152 -0.019063 -0.175780 -0.064593 0.321934 -0.328023 -0.061971 0.014805 0.089914 -0.232266 0.160423 -0.012518 -0.447109 0.060532 0.373445 0.114384 0.243390 -0.044291 0.006600 0.128034 0.216769 0.000497 0.257830 0.249108 -0.302742 -0.054098 -0.067615 -0.145671 0.192172 -0.399576 -0.239427 -0.207047 -0.024602 0.005635 0.047931 -0.190589 0.159929 -0.166672 -0.133528 
对 -0.135986 0.501843 -0.232000 0.110652 0.244370 0.058164 0.398338 -0.151115 0.156937 0.048246 -0.255498 0.267521 -0.123193 -0.137177 0.194199 -0.072505 0.229656 0.076584 -0.347405 0.108187 0.120419 -0.195308 -0.449562 -0.074100 -0.219478 0.013923 -0.240171 -0.041108 0.031868 -0.122356 0.084525 -0.023591 -0.126986 0.041719 0.152604 0.042293 0.289533 -0.341370 0.373923 0.272323 0.151576 0.111588 -0.104877 -0.299728 0.116796 -0.059937 0.087967 -0.261102 -0.357503 -0.002502 -0.144330 0.047281 0.259649 0.284375 -0.077884 -0.226624 0.377826 -0.029583 -0.049799 -0.259814 -0.191369 0.061496 -0.128607 0.124568 0.261861 -0.009531 0.091487 -0.315582 -0.259984 -0.218616 -0.148345 0.035149 -0.193528 -0.150583 0.132575 0.289448 0.046833 0.029441 0.081803 -0.070906 0.137194 -0.340310 0.153423 0.160682 -0.519382 0.071470 0.119849 -0.032617 0.227171 -0.056605 0.156852 0.265498 0.211571 0.013558 -0.157569 -0.181157 0.147304 -0.247919 0.242462 -0.160876 -0.313670 -0.131161 0.103978 0.235855 -0.061888 -0.003810 -0.106368 0.011018 -0.182407 -0.131536 -0.083100 -0.216322 0.174850 0.055958 0.246310 -0.219751 0.111574 0.100751 -0.040522 -0.189189 -0.025395 -0.197969 0.175066 0.207563 0.162012 0.337379 0.002254 0.071116 -0.129350 -0.285773 -0.201092 -0.029641 0.097680 -0.225161 -0.119473 0.126063 0.165898 -0.183321 0.215358 0.101780 -0.138312 -0.130852 -0.317700 0.040947 -0.020981 -0.002559 -0.185132 -0.258855 0.128934 -0.276661 0.058966 -0.033075 0.020248 -0.050694 -0.112855 0.033157 -0.066250 0.019228 -0.132572 -0.117912 -0.157819 0.059171 0.197651 -0.023118 -0.500191 -0.161126 0.082719 0.245966 -0.102660 -0.275386 0.212407 0.253408 0.251843 -0.172177 -0.248044 0.032964 -0.501834 -0.169101 -0.157927 -0.040753 -0.112700 -0.120577 -0.228261 -0.049746 0.032932 -0.026293 -0.122047 -0.169699 0.015802 0.039182 -0.113848 -0.005809 -0.056383 -0.246591 -0.120504 0.189888 -0.137006 0.470320 -0.194664 0.138598 -0.237919 0.036456 0.125576 -0.268154 0.043810 0.001463 -0.070120 -0.253623 0.296015 0.097411 0.070353 -0.139836 0.132403 0.084703 -0.088461 -0.107455 -0.232369 -0.007367 -0.126342 -0.107894 0.116276 0.111490 0.009515 0.224564 0.119237 -0.116781 0.041656 0.373374 -0.062227 -0.046488 -0.272833 -0.225712 -0.290488 0.277875 0.170282 -0.117755 0.179785 0.310980 0.068004 0.056361 0.105851 -0.455254 -0.113536 0.240253 0.006716 0.172224 -0.215057 0.006770 -0.079905 0.052837 0.371119 0.188782 -0.164468 -0.105586 -0.206823 0.017941 0.022868 -0.191180 0.190835 0.108217 -0.278268 -0.179209 -0.119190 -0.081965 -0.010242 0.124494 -0.331423 0.006641 -0.374883 0.342156 0.102709 0.116751 0.057768 -0.191665 0.175813 0.435198 0.135707 0.273085 0.284911 0.049668 0.188193 0.180415 0.092257 -0.037242 0.082460 -0.074479 0.099195 0.035172 -0.092132 -0.273051 -0.416809 -0.262406 0.014269 -0.039507 -0.063902 0.014423 0.310643 0.000537 0.071915 0.175160 
个 -0.050753 0.185776 -0.044285 -0.128137 0.073149 -0.153741 0.188483 0.036655 0.169948 0.029179 -0.291255 0.094368 -0.172149 -0.036871 0.103523 0.172740 0.172238 0.328748 -0.611535 -0.055550 -0.032515 -0.245157 0.128702 -0.150987 0.060131 -0.180352 -0.162173 0.277166 0.104098 -0.039644 0.422193 -0.274432 -0.103307 0.022383 -0.094120 -0.119571 -0.060727 -0.464212 0.385512 0.091008 0.169495 -0.207189 0.095181 0.167425 0.093643 0.297606 0.041254 -0.195288 -0.277968 -0.161387 -0.220845 -0.029686 0.141606 0.264832 -0.173336 -0.147510 -0.033761 -0.110288 0.077319 -0.184699 -0.325197 0.234780 -0.143456 0.192748 0.131442 0.125728 0.157992 -0.141462 -0.021875 -0.029082 -0.120580 -0.322981 -0.271019 0.154104 -0.194690 0.050301 -0.025821 0.444538 -0.039336 -0.270409 0.225785 -0.282848 0.046258 0.226748 -0.358489 0.026430 -0.155875 -0.108209 0.354457 0.134040 0.302764 0.129478 -0.437316 -0.011351 0.371001 -0.157019 0.255108 -0.021879 -0.214950 -0.245768 -0.254342 -0.018013 0.248364 -0.204777 -0.168340 0.093547 -0.112066 -0.072225 -0.124091 0.057202 0.190894 -0.114265 0.063053 0.122674 -0.259682 -0.373599 0.380482 0.074134 -0.174536 -0.186209 -0.100781 -0.046330 0.175269 0.109002 -0.036374 0.302076 0.401883 0.270936 -0.135866 -0.197970 -0.427917 -0.280369 0.229356 -0.124729 -0.007646 0.325455 0.065946 0.062415 -0.035087 0.033302 -0.279921 -0.247952 0.100941 -0.074868 -0.018499 -0.305015 0.009417 -0.078999 0.010702 -0.325272 -0.050748 -0.023154 0.073408 -0.038095 -0.153941 -0.051833 -0.240445 -0.200631 0.306709 0.240322 0.116682 0.217983 -0.133491 -0.159751 -0.176849 0.151520 -0.015669 -0.102344 -0.278001 0.083888 0.293401 0.132996 0.168194 -0.130070 -0.232683 -0.023532 -0.482299 0.163500 -0.202122 0.320213 -0.201388 -0.268854 -0.095348 0.474543 -0.252640 -0.052080 -0.084481 -0.079837 0.245793 -0.063549 -0.018578 0.155103 -0.110179 0.214745 -0.034442 0.207649 -0.416772 -0.031913 -0.028752 -0.240792 -0.152281 0.176384 0.259567 -0.358512 -0.105990 -0.226640 0.337134 -0.208923 0.017037 0.050389 -0.319886 -0.094274 -0.115135 -0.025382 -0.072858 -0.254413 -0.063149 0.017217 0.112204 -0.209588 0.265207 0.069270 -0.041176 -0.069134 0.103492 0.051055 0.129746 -0.008710 -0.201457 -0.045966 0.086430 0.190264 -0.193566 0.090851 -0.028667 0.214897 0.375439 0.128133 0.267728 -0.228218 -0.230935 -0.490324 -0.241150 -0.096441 -0.124567 0.164354 -0.048672 0.059732 0.030471 -0.204266 0.225444 -0.119235 -0.030066 -0.175722 -0.468549 0.011967 0.033635 -0.287759 -0.172303 -0.088643 -0.383640 -0.247570 -0.186259 0.254673 0.132485 0.018123 -0.146299 0.088165 -0.005070 0.105940 -0.157183 0.135179 -0.002260 -0.313780 0.272093 0.011376 0.176679 0.032940 -0.084341 -0.149265 0.065194 0.346914 0.094868 0.049667 -0.014663 -0.004382 -0.043737 0.150449 -0.229740 0.065999 -0.513235 -0.054412 0.014632 -0.163644 -0.330731 0.129037 0.051797 -0.056569 -0.102366 0.053260 
上 -0.242436 0.176786 -0.381791 -0.119537 0.321184 0.168796 0.020288 -0.050305 0.059352 -0.007135 -0.055976 0.219154 -0.064629 0.036831 0.263877 0.055000 0.273724 0.322308 -0.369591 0.190532 0.228044 -0.419266 0.369055 -0.256713 -0.228382 -0.065243 -0.113640 -0.127651 0.232775 -0.296988 -0.032670 0.041288 -0.049469 0.291299 0.155236 0.014197 0.124270 -0.126807 0.031364 0.380893 0.238912 0.122294 -0.032647 -0.352311 0.247384 -0.013008 0.110843 -0.198461 -0.029236 -0.244375 0.110420 0.087126 0.544066 -0.017259 -0.105769 0.044948 0.008885 0.109993 0.035314 -0.466392 -0.211602 0.198172 -0.092837 0.129289 0.101921 0.031944 0.272895 -0.203190 -0.279850 0.037834 -0.073049 -0.159726 -0.074512 -0.052314 0.172895 0.017602 0.097444 0.235389 0.125757 -0.251222 0.164946 -0.326248 0.082968 0.376093 -0.210738 0.043100 0.160662 -0.097945 0.425258 -0.037987 0.047724 -0.002453 -0.186740 0.097372 0.054755 -0.306458 0.178373 -0.031350 -0.082881 -0.250690 -0.181657 0.419463 -0.086532 -0.094481 0.037753 0.016356 -0.029878 0.234771 -0.385853 -0.132996 -0.217601 0.149826 -0.065847 0.069009 0.252949 -0.156897 0.009108 0.041629 0.240397 -0.059585 -0.361347 0.000475 0.137273 0.058541 0.058948 0.049633 -0.080907 0.294106 0.169522 -0.082144 -0.297021 -0.288979 0.312783 0.040637 -0.199929 0.246745 -0.119471 -0.319448 -0.141291 -0.258233 -0.132840 -0.225959 -0.188278 -0.155852 -0.187288 0.060114 0.253092 -0.122401 -0.245929 -0.178222 0.324939 0.125937 -0.006751 0.107490 -0.151899 -0.204101 -0.114315 0.119924 0.337348 0.060658 0.187170 0.098981 0.177594 0.124231 -0.229569 0.247385 0.090332 0.041216 0.023002 -0.146773 0.191659 -0.033121 0.101016 -0.136066 -0.138262 -0.009672 -0.283431 -0.106567 -0.135339 0.406386 -0.380269 -0.251057 0.221552 0.037651 -0.040976 0.138016 -0.269597 -0.190155 0.089612 -0.145766 0.044865 0.143697 0.061262 -0.158878 -0.124104 0.016059 -0.141318 0.040499 -0.272692 -0.345478 0.283760 0.107810 -0.138890 -0.428932 -0.173266 -0.103388 0.125538 -0.102687 0.200395 -0.114471 -0.225683 -0.335833 0.278036 -0.050071 -0.304656 -0.287364 0.372905 -0.069569 0.001307 -0.382993 0.074213 -0.275227 -0.269306 -0.028280 0.024071 -0.129130 0.436621 -0.054823 0.085598 0.403603 0.097978 -0.164004 -0.156551 -0.006494 -0.142696 -0.080083 0.343754 0.489137 0.188210 -0.110945 0.213299 -0.290631 -0.117868 0.180646 -0.281547 0.022801 0.108688 0.355227 -0.203294 -0.084030 0.327044 0.033633 0.055278 0.106243 -0.102462 -0.043705 0.152901 -0.234442 0.059313 0.061877 -0.313018 -0.102516 -0.365975 0.205657 -0.253573 0.054058 -0.204805 0.080031 -0.176012 0.060791 -0.077062 0.246514 0.150803 -0.271074 0.228953 0.327165 0.157031 0.199304 0.049753 -0.297787 0.041273 0.136414 0.097531 0.161058 -0.146956 -0.002732 -0.032491 0.112069 -0.253780 0.346355 -0.329350 -0.231841 0.027231 -0.319869 -0.259945 0.320431 -0.088355 0.025290 -0.084097 -0.180932 
不 -0.060259 0.286395 -0.366594 -0.326607 0.061444 0.146528 0.091697 -0.321810 0.216205 0.132307 -0.156063 0.129169 -0.066032 0.239946 0.089655 -0.001596 0.201410 0.115942 -0.692730 0.222515 -0.120707 -0.216967 -0.022164 0.016691 -0.068992 -0.046946 -0.248085 0.298379 -0.242774 0.019876 0.022169 0.063936 -0.126235 0.155995 -0.062994 0.027397 0.140729 -0.155808 0.479261 0.279695 0.225841 0.018585 0.193570 -0.028038 0.173549 0.056827 -0.114974 -0.169950 -0.429783 -0.046212 -0.055570 0.073947 0.065283 0.173522 -0.137175 -0.146705 0.161687 0.043253 0.296991 -0.146063 -0.376502 -0.222583 -0.058164 0.042057 0.111042 -0.177263 0.066622 -0.216399 -0.253766 0.231824 -0.173495 -0.090724 -0.069519 -0.183515 -0.120058 -0.042988 0.029491 0.267068 0.220976 -0.540521 0.312405 -0.147588 0.137669 0.353982 -0.414715 0.001522 -0.080833 0.050701 -0.011063 -0.161812 -0.073133 0.188602 -0.288666 0.080481 0.083173 -0.231756 0.126018 0.002245 -0.051130 -0.341631 -0.295007 -0.192892 0.003373 -0.315037 -0.000124 -0.188257 0.154076 -0.060126 -0.285084 -0.178750 0.314486 0.140000 0.145583 0.078711 0.253235 -0.192705 0.307185 0.272194 0.107200 -0.111740 -0.245355 0.150295 0.215038 -0.040367 0.086729 0.274613 -0.080243 0.070053 -0.079870 -0.104046 -0.466417 -0.071329 0.082900 -0.217922 -0.001026 0.038528 0.085257 -0.403863 -0.010932 0.219611 -0.151093 -0.220546 0.139498 -0.315079 -0.258711 0.002413 -0.103377 -0.368913 0.128865 -0.335989 0.023997 0.018901 -0.240938 -0.177953 -0.184635 -0.147596 -0.061350 -0.317707 -0.123509 -0.218685 0.000612 0.013688 0.248456 -0.416350 -0.144012 0.025503 0.029739 0.130406 -0.285339 0.206752 0.114871 0.010180 0.215910 -0.150338 -0.314562 -0.172749 -0.330030 0.150579 0.103522 0.079182 -0.127185 0.213742 -0.193992 0.203504 -0.012368 0.151148 -0.052979 -0.050939 -0.182223 -0.017092 0.145051 0.241900 0.071648 -0.006994 0.136982 0.027993 -0.249094 0.062313 -0.187589 -0.142292 0.172927 0.023958 0.066209 -0.396546 0.155411 -0.036392 0.076832 -0.177170 0.247236 0.064205 -0.042783 -0.250662 0.149325 0.000616 -0.107176 -0.240622 -0.068147 0.100773 0.144049 0.011132 0.111168 -0.014079 -0.052667 0.239857 0.165171 -0.104184 0.093008 0.148222 0.131137 0.146933 -0.076029 0.067241 -0.228898 0.040956 -0.104407 0.068570 0.252008 0.266429 0.072085 -0.051329 0.089069 -0.350989 -0.158024 0.245132 0.214369 -0.097386 0.078181 0.152517 0.054307 -0.053272 0.483309 0.276533 -0.107380 -0.038374 -0.120788 -0.193019 -0.122597 -0.284551 -0.004117 0.222230 -0.378648 -0.126532 -0.294380 0.065717 -0.260130 -0.183629 -0.058678 0.173614 -0.129936 0.392561 0.031885 0.174182 0.147628 -0.299620 0.227758 0.374008 0.088773 -0.083584 -0.076379 -0.167740 0.068353 0.208423 0.161435 0.081058 0.038179 0.138886 0.261805 0.031204 0.017634 0.086344 -0.367866 -0.245076 0.010143 -0.140572 -0.100273 0.207062 -0.064712 0.241908 -0.132949 0.065097 
就 0.156066 0.301260 -0.221935 -0.117735 -0.002861 0.213246 0.152517 -0.083186 0.222128 -0.037629 -0.348993 0.132270 -0.209970 0.062261 0.086322 -0.142726 0.132190 0.077879 -0.383854 0.079588 0.170888 -0.349728 0.075412 0.084160 -0.018852 -0.027461 0.093388 0.228207 -0.116815 0.147927 0.039053 -0.146275 -0.156248 -0.111049 0.110071 -0.064874 0.087809 -0.252512 0.345227 0.001849 0.212026 -0.033502 0.303973 -0.026850 0.147882 0.173776 -0.020409 -0.282642 -0.186790 -0.378706 0.030696 -0.021982 0.196562 0.278857 0.046736 -0.243907 -0.026434 -0.000917 0.216629 -0.160245 -0.286665 -0.213731 0.047704 0.122428 0.109633 0.259040 0.116021 -0.162311 -0.139210 0.120586 -0.185957 -0.235882 0.050898 0.057321 -0.007894 -0.207498 -0.105251 0.039155 0.113733 -0.329696 0.362209 -0.316116 0.247747 0.198679 -0.380488 -0.024699 0.163584 0.096728 0.158605 -0.345531 0.154519 0.060710 -0.035885 0.112219 -0.036231 -0.260001 0.031540 -0.048781 0.064226 -0.320697 -0.178251 0.062240 0.027737 0.028083 -0.196771 -0.191076 -0.066557 0.217341 -0.207436 -0.017080 0.031028 0.078609 0.209657 -0.009616 0.113546 -0.325916 0.337886 0.169201 0.063178 -0.001072 -0.473588 -0.048943 0.219247 0.074688 0.076846 0.210104 0.300105 -0.057174 -0.253566 -0.093027 -0.418064 -0.090788 0.211905 -0.108938 0.167163 0.243555 0.027397 -0.281714 0.021837 -0.065455 -0.102924 -0.216699 0.038584 -0.227003 -0.357552 0.292404 -0.222352 -0.328250 -0.100216 -0.287430 0.006709 0.009209 0.015423 -0.254405 -0.162851 -0.207249 -0.180984 -0.102810 0.071621 -0.052163 -0.057622 -0.020398 0.226313 -0.174615 -0.357871 0.159503 0.058079 -0.037737 -0.285882 -0.001266 0.313450 0.134897 0.285130 -0.092833 -0.338078 0.005162 -0.331494 0.053027 -0.180240 0.040533 -0.093130 -0.246372 -0.179280 0.286747 -0.088216 0.088926 -0.273390 -0.225492 0.005036 0.161930 0.078323 0.156890 0.158935 -0.035434 0.014180 0.229470 -0.283311 0.206647 -0.267392 -0.214651 0.013582 -0.086758 0.058371 -0.152164 -0.125977 -0.134438 0.125662 -0.145766 0.087814 0.199029 -0.123480 -0.126966 0.295360 -0.081851 -0.393046 -0.157681 0.126060 -0.040284 0.254773 0.058898 0.188250 -0.121015 -0.219223 0.150966 -0.040612 -0.221067 0.172993 -0.279022 -0.036662 0.136146 0.071080 -0.053296 -0.220285 0.126362 -0.053405 0.069808 -0.022494 0.130849 0.039064 -0.241732 -0.193889 -0.471676 -0.092969 0.148144 -0.037990 0.149534 -0.045708 0.050813 -0.108538 -0.077503 0.338922 0.035705 0.069620 -0.121962 -0.218522 0.164368 0.199200 -0.385447 -0.008690 -0.046531 -0.234280 -0.427238 -0.280123 0.111905 0.185745 -0.076548 -0.143017 -0.083680 -0.058999 0.136043 -0.011068 0.283421 0.131375 -0.564255 -0.068784 0.390612 0.200374 0.006799 -0.161139 -0.285033 0.159022 0.210612 0.196550 -0.029762 -0.008813 -0.107148 0.102443 -0.040736 0.028286 0.235432 -0.454527 -0.132920 -0.078597 -0.120475 -0.132100 0.416829 -0.143737 0.157163 -0.075457 0.021783 
他 -0.214626 0.201249 -0.049764 -0.093330 0.232433 0.163918 0.140438 0.156702 0.238564 0.060313 -0.266996 0.120123 -0.138037 0.117395 0.001511 0.224040 0.276808 -0.021207 -0.277774 0.107422 0.125471 -0.317972 -0.056947 -0.165844 -0.358623 0.141824 -0.168785 0.064649 0.142913 -0.197163 0.123479 -0.179534 -0.229966 0.140081 0.178757 0.018263 -0.082518 -0.237311 0.428538 0.128225 0.114484 -0.082300 0.177531 -0.109278 0.205381 0.153768 -0.037386 -0.143279 -0.294074 -0.137670 0.036014 -0.109980 -0.099671 0.105368 -0.130667 -0.197106 0.034711 -0.059104 0.362872 -0.258683 -0.547183 -0.083931 -0.038397 0.153531 0.124837 -0.214354 0.060215 -0.195877 -0.280903 0.235434 -0.275595 -0.342152 -0.275739 -0.030318 -0.110441 -0.046438 0.109471 0.018340 0.199075 -0.183351 0.214715 -0.295057 0.080232 0.079441 -0.256667 0.137465 0.194323 -0.062594 0.002561 -0.303979 0.323838 0.128163 -0.109846 0.002981 0.086532 -0.361509 0.196439 -0.095238 0.126356 -0.436664 -0.065198 0.120968 0.213347 -0.147430 -0.154518 -0.143777 0.011648 0.181278 -0.087793 0.049212 0.052047 0.126518 0.397070 0.030740 0.353525 -0.250735 -0.057306 0.215413 0.100621 -0.043464 -0.156432 0.048687 0.144658 0.017112 -0.094794 0.203152 0.213665 -0.107082 -0.115401 -0.185457 -0.371067 0.004329 0.088773 -0.045094 -0.170832 0.235751 -0.051325 0.107428 -0.129468 0.026749 -0.251665 -0.310255 0.086369 -0.274137 -0.177449 0.290667 -0.125300 -0.016763 -0.092838 -0.163865 -0.058795 -0.066186 0.089128 -0.019532 -0.126258 0.001757 -0.222496 0.044231 -0.039483 -0.092975 0.011008 0.178507 0.250034 -0.140222 -0.356232 0.135369 -0.090174 0.012787 -0.242980 -0.026619 0.044310 -0.049606 0.309854 -0.084831 -0.489239 0.031181 -0.253181 0.104965 -0.040936 0.110050 -0.116673 0.118082 -0.125805 0.044881 -0.243190 0.237715 0.015269 -0.299271 -0.183032 -0.056610 0.032565 0.280518 0.128013 -0.069733 0.133803 0.234805 -0.306557 0.065672 0.059695 0.005916 0.182812 0.065950 -0.039093 -0.137821 -0.057813 -0.235564 0.135821 -0.003786 0.209127 0.020017 -0.173752 -0.198885 0.230102 -0.065990 -0.214994 -0.090854 0.125594 -0.130683 0.055433 -0.172482 0.212469 -0.144825 -0.134960 0.017274 0.131099 0.068802 0.001823 0.033608 -0.017379 -0.102699 0.001038 -0.069943 -0.310285 0.308157 0.146998 -0.036155 0.110759 0.110336 0.162389 0.024564 -0.232960 -0.341423 -0.011733 0.140059 0.009403 0.150326 -0.029893 0.182556 -0.045236 -0.167716 0.170783 0.139994 0.026725 0.110859 0.089673 -0.212917 -0.225546 -0.033326 0.091359 0.234360 -0.072530 -0.139858 -0.364145 -0.044301 0.116134 0.132459 -0.193845 -0.007105 -0.080973 0.152428 0.015557 0.210496 0.193572 -0.426680 0.142863 0.256897 0.037613 0.114783 0.051249 -0.301730 0.141749 0.125326 0.016694 -0.077019 0.039845 0.152994 0.002540 0.070473 0.043173 0.095526 -0.445560 -0.079685 -0.225966 -0.350300 -0.472085 0.133185 0.001149 -0.128055 -0.135856 0.158024 
日 0.023807 -0.105145 -0.141238 0.089701 0.036854 -0.307471 0.004301 -0.199882 0.001024 -0.007386 -0.163539 0.051370 0.263558 -0.242609 0.343353 -0.030439 0.369196 0.061328 -0.140290 0.224798 0.247926 -0.185097 -0.299383 -0.096658 -0.312546 -0.205627 -0.273531 -0.019690 -0.083174 0.120664 0.002742 -0.142692 -0.423216 -0.141687 -0.170522 -0.025405 -0.131823 -0.005968 0.099141 0.139084 0.022446 -0.212473 -0.111852 0.276610 -0.165850 0.143439 0.067707 0.137334 -0.332409 -0.128105 0.108745 0.116423 0.044447 -0.057017 -0.054556 -0.227116 0.063550 0.028004 0.081667 -0.260985 -0.237168 0.121150 -0.063294 0.312026 -0.252678 0.109793 -0.102613 0.017029 0.178280 -0.044562 -0.107873 0.037108 -0.642933 0.171071 -0.260785 -0.012120 0.077579 0.054936 0.040567 -0.328894 0.056342 -0.349043 -0.085098 -0.044158 -0.000461 -0.092603 -0.053887 0.165716 -0.377370 -0.119231 -0.135767 0.287299 -0.192906 0.091593 0.026114 -0.109961 -0.029275 0.355176 -0.012529 -0.144602 -0.324447 0.025518 0.065692 -0.013821 0.181789 -0.280312 -0.068482 0.246308 0.027985 0.351520 -0.155696 0.031772 0.103008 0.043438 0.131598 -0.208866 0.416534 0.149980 0.365291 0.007122 -0.385571 -0.173084 0.069840 0.185909 -0.063249 0.242171 -0.290463 0.244987 -0.130541 -0.191549 -0.154759 0.513127 0.237585 0.170293 -0.118110 0.211360 -0.137005 -0.334587 -0.154008 0.040149 -0.217893 0.030811 -0.045821 0.100347 -0.005555 0.025866 0.199575 -0.033998 -0.216641 -0.311323 0.201487 0.176351 0.054498 -0.125849 -0.097032 -0.054567 0.003143 0.070754 0.188277 0.108372 -0.087192 -0.065039 0.032483 -0.130281 -0.102655 0.039503 0.040583 0.048123 -0.302644 -0.015615 0.187050 0.024963 0.477371 0.117393 0.022726 0.037731 -0.335075 0.041319 -0.228436 0.223240 -0.340130 -0.197391 -0.150992 0.008835 -0.086707 -0.039378 -0.165108 -0.180159 -0.282257 0.170074 0.033660 0.203993 0.028328 0.336029 -0.116119 0.241249 0.001464 0.033822 -0.146207 0.110924 0.043725 -0.281166 -0.114607 -0.033901 -0.082860 0.204900 0.052024 0.015446 0.513970 0.356690 -0.243766 -0.165492 0.341539 -0.186569 0.356717 -0.494351 -0.118087 0.053274 0.246667 -0.375092 0.098790 0.104155 0.068826 0.054828 -0.025877 -0.128640 0.098249 -0.155117 -0.044310 -0.327819 -0.101338 0.100322 0.200938 0.143903 0.478983 -0.022433 0.007392 0.266161 -0.106245 -0.211519 -0.041942 -0.156939 -0.127895 -0.223733 0.340261 0.020488 -0.386598 -0.198370 -0.072651 0.075580 0.022874 0.014071 0.232837 0.216174 0.155101 -0.267041 0.046462 0.006094 0.321174 0.347929 -0.232015 0.301553 -0.131025 -0.114858 0.003771 -0.355989 -0.123497 0.199485 0.117581 0.264627 0.186110 0.396090 0.381726 -0.188649 0.104143 -0.075315 0.160693 0.057754 0.021588 -0.145126 0.203472 0.418485 0.072395 -0.072582 0.382817 -0.129823 -0.020277 0.178336 0.072977 0.238614 -0.350174 0.196700 0.212758 -0.233221 0.115548 0.136789 -0.066675 0.359099 -0.073409 0.119026 
% -0.185703 0.362842 -0.240656 0.063399 0.286759 0.020575 0.252515 -0.483160 0.154539 -0.477362 -0.123461 0.429778 0.010126 -0.020127 0.022471 0.213822 -0.402996 0.230042 -0.347546 0.225852 -0.031884 -0.552340 0.014849 -0.340894 -0.110742 -0.274136 -0.304734 0.117263 0.246305 0.065678 0.021706 0.268686 -0.359852 0.005514 -0.010135 -0.085244 -0.086016 -0.091572 0.000502 0.100695 0.220772 -0.232333 0.257379 -0.077925 -0.217872 -0.011146 0.260558 0.187359 0.113544 0.041453 0.309215 -0.008094 0.014517 0.211302 -0.291275 -0.074858 0.121661 0.294316 0.154257 -0.542641 -0.132138 -0.226758 -0.360154 -0.127796 -0.388651 0.367836 0.105581 -0.201680 -0.472348 -0.031684 -0.064034 -0.197217 -0.253508 0.205083 0.022259 -0.414910 0.032775 0.020443 0.111583 -0.275046 0.199451 -0.271545 0.229181 -0.059401 -0.228450 0.389466 -0.339797 0.072807 -0.251049 -0.226212 -0.306527 0.107385 0.061000 0.261034 -0.588984 -0.279849 0.038606 0.117967 -0.568548 0.060267 -0.067818 -0.207323 -0.049017 0.104733 -0.156874 -0.102350 0.320718 -0.056438 -0.158633 -0.138651 -0.233212 -0.451672 0.093060 -0.097467 0.063790 -0.176994 0.314583 0.043500 -0.685578 -0.196066 -0.272851 -0.037341 -0.043574 0.035971 0.100511 0.684036 -0.003359 0.242590 0.034908 0.025512 0.063066 -0.144846 -0.382765 -0.170208 0.319066 0.093302 0.234123 0.077742 -0.324267 0.062627 -0.252482 0.199852 -0.052085 -0.013481 -0.114558 -0.273371 -0.015321 0.074817 0.161563 -0.080833 0.041190 -0.397206 0.015127 -0.124073 -0.042092 0.037495 -0.026182 -0.263269 -0.149318 -0.340260 -0.201984 0.143731 0.166674 -0.016876 0.218704 0.690360 -0.175752 0.015714 0.034531 0.099872 -0.133816 0.366879 0.174614 0.056279 -0.467168 0.001395 -0.273393 0.224995 -0.011032 0.419436 -0.102255 0.041673 0.272868 0.360160 0.114665 0.334798 -0.157009 -0.008492 -0.194225 -0.121024 -0.308940 0.502185 -0.141008 0.097689 -0.415134 0.293787 0.250437 0.019147 -0.248574 0.187899 -0.085599 0.411985 0.096034 -0.065280 -0.119246 -0.256397 0.182925 0.163053 0.350454 0.374909 0.226525 -0.152473 0.005271 -0.289675 0.182072 0.211573 -0.229859 0.060500 -0.125247 -0.241253 0.291186 0.015691 -0.132618 -0.405477 0.224187 0.114559 0.201528 -0.008991 0.139811 -0.163764 0.250804 -0.121103 0.369890 0.257832 -0.336071 0.184276 0.189227 0.058983 0.222926 -0.177971 0.400106 -0.474228 0.199898 0.029442 0.131462 0.113426 -0.410159 -0.113029 0.375330 0.007717 0.057310 -0.047038 0.005292 -0.300020 0.226250 0.351427 0.082979 -0.189445 -0.014110 0.263685 -0.035771 -0.130403 0.287061 0.259985 -0.152442 -0.085724 0.001357 -0.060232 0.084181 -0.000364 -0.059630 -0.067041 -0.077528 -0.249503 -0.001762 0.232794 -0.179456 0.319897 0.269379 0.051934 -0.018977 -0.041790 -0.021927 0.146899 0.009946 0.147126 0.166361 0.087665 0.289349 0.135912 -0.350133 0.023003 -0.009057 -0.209681 0.210403 0.365286 0.388920 -0.110578 -0.022582 0.226181 
被 -0.054162 -0.037592 -0.240148 0.147143 0.059668 -0.012793 0.208240 -0.060126 0.045592 0.035915 -0.184109 0.293202 -0.221513 0.085796 0.378853 -0.094568 0.344703 -0.001529 -0.520651 -0.122949 -0.025051 -0.137685 -0.124866 0.005120 -0.183638 0.095006 0.001491 -0.004456 -0.074166 0.127205 0.090094 -0.193370 -0.273027 -0.013654 0.181118 0.233145 0.033519 -0.409067 -0.016565 0.126299 0.195377 -0.174100 0.339103 -0.161646 0.074223 0.064777 -0.061204 -0.319361 -0.261533 -0.160654 0.138945 0.019063 0.203618 0.335541 -0.141577 0.104822 0.275952 -0.013310 0.276976 -0.500448 -0.279719 0.153903 -0.055737 0.363520 -0.185422 0.251490 0.204832 -0.182018 -0.120123 0.248633 0.135229 -0.202585 -0.283546 0.140519 -0.050171 0.186803 0.150785 0.234825 0.244257 0.000735 0.152283 -0.231697 -0.367011 0.118451 -0.064797 0.079013 -0.124406 0.278189 -0.219432 0.090971 0.406982 0.304610 -0.247317 -0.084863 0.037064 -0.453586 -0.079897 -0.192255 0.009097 -0.559152 -0.089884 0.171793 0.081340 -0.336169 -0.169004 -0.217957 -0.262379 0.029392 -0.118438 0.087163 -0.177851 0.262732 0.328283 0.018929 0.203421 -0.446895 0.023542 0.019316 0.014703 -0.082749 -0.103982 -0.123386 0.205885 -0.037964 0.045995 0.268331 0.299030 0.145508 0.116359 -0.391705 -0.568319 -0.017103 -0.081969 0.229705 0.228319 -0.046766 0.015965 -0.252572 -0.317837 -0.020453 0.213683 -0.159704 -0.125115 -0.147807 -0.063534 0.364379 0.020810 -0.176250 -0.095057 -0.396648 0.346309 0.173963 0.078017 0.005798 -0.281707 0.071653 -0.115574 0.103468 -0.311765 -0.263514 -0.336712 -0.096988 0.397895 -0.109216 -0.523180 0.140209 0.060973 -0.014498 -0.188812 -0.042566 0.296055 0.234933 0.129284 0.061918 -0.356951 -0.215154 -0.324259 0.049655 0.000608 0.110152 -0.267983 -0.181802 0.019366 0.190755 -0.135079 0.199828 -0.045641 -0.125230 -0.055230 0.012959 -0.120558 0.313715 0.119894 0.165959 0.165376 0.183068 -0.123743 0.088790 -0.524766 -0.073646 -0.053837 0.125225 0.121876 -0.367516 0.099068 -0.077756 0.142795 -0.078927 0.364253 0.160835 -0.358565 -0.083700 0.007410 -0.133360 -0.227270 -0.037407 0.182286 -0.147188 0.371857 -0.255126 0.268894 -0.176452 -0.155564 0.279525 -0.027453 -0.008437 0.197564 0.035532 0.056343 -0.147641 -0.171109 0.282810 -0.260340 0.117250 0.169054 -0.142473 0.075956 0.046028 0.177861 -0.065406 0.052651 -0.057789 -0.190051 0.166340 0.129184 0.066147 -0.099098 0.019157 0.000119 0.029605 0.290459 -0.159076 -0.028438 0.051838 0.134576 -0.130242 -0.015057 -0.194877 0.081844 -0.065766 -0.005211 -0.036582 -0.140850 -0.015954 -0.025413 0.038259 -0.258308 -0.046901 -0.191093 0.153732 0.145656 0.076964 0.061492 -0.023433 -0.100930 0.690684 0.169680 0.135077 0.184048 -0.132688 0.387953 0.036867 0.268074 -0.078640 0.128920 0.283966 0.077410 -0.143956 -0.155844 0.094006 -0.374311 -0.262628 -0.145973 -0.062642 -0.023823 0.412028 -0.073805 -0.018820 0.090774 0.278939 
